
//<![CDATA[

// a few things don't have var in front of them - they update already existing variables the game needs
lanesSide = 2;
patchesAhead = 12;
patchesBehind = 7;
trainIterations = 50000;

// the number of other autonomous vehicles controlled by your network
otherAgents = 10; // max of 10

var num_inputs = (lanesSide * 2 + 1) * (patchesAhead + patchesBehind);
var num_actions = 5;
var temporal_window = 3;
var network_size = num_inputs * temporal_window + num_actions * temporal_window + num_inputs;

var layer_defs = [];
    layer_defs.push({
    type: 'input',
    out_sx: 1,
    out_sy: 1,
    out_depth: network_size
});
layer_defs.push({
    type: 'fc',
    num_neurons: 160,
    activation: 'relu'

});
layer_defs.push({
    type: 'fc',
    num_neurons: 40,
    activation: 'relu'

});
layer_defs.push({
    type: 'fc',
    num_neurons: 10,
    activation: 'relu'
});
layer_defs.push({
    type: 'regression',
    num_neurons: num_actions
});


var tdtrainer_options = {
    learning_rate: 0.004,
    momentum: 0.5,
    batch_size: 64,
    l2_decay: 0.01
};

var opt = {};
opt.temporal_window = temporal_window;
opt.experience_size = 3000;
opt.start_learn_threshold = 500;
opt.gamma = 0.7;
opt.learning_steps_total = 10000;
opt.learning_steps_burnin = 1000;
opt.epsilon_min = 0.0;
opt.epsilon_test_time = 0.0;
opt.layer_defs = layer_defs;
opt.tdtrainer_options = tdtrainer_options;

brain = new deepqlearn.Brain(num_inputs, num_actions, opt);

learn = function (state, lastReward) {
brain.backward(lastReward);
var action = brain.forward(state);

draw_net();
draw_stats();

return action;
}

//]]>

/*###########*/
if (brain) {
brain.value_net.fromJSON({"layers":[{"out_depth":395,"out_sx":1,"out_sy":1,"layer_type":"input"},{"out_depth":160,"out_sx":1,"out_sy":1,"layer_type":"fc","num_inputs":395,"l1_decay_mul":0,"l2_decay_mul":1,"filters":[{"sx":1,"sy":1,"depth":395,"w":{"0":0.07235500517152951,"1":0.02640675442175996,"2":0.3166581418819063,"3":-0.04288941542160838,"4":-0.019113318256242684,"5":-0.02425346647861706,"6":-0.02291047637983694,"7":0.3342716650569671,"8":0.044279240003857114,"9":0.06463987162658702,"10":0.16052576510127725,"11":0.004185874389138321,"12":0.3236291334699319,"13":0.19654201480186198,"14":0.0787358280108349,"15":0.052981488113808144,"16":0.012275961142087243,"17":0.38281493290032487,"18":0.13482055756888814,"19":0.09558920714800187,"20":0.049510253834579535,"21":0.08566560174112298,"22":0.22728444355402044,"23":0.00815169749767249,"24":0.07879343586778671,"25":-0.053991765986972216,"26":0.1362962699742884,"27":0.6925985827195239,"28":0.10224636596498529,"29":0.13473824978058505,"30":-0.04475557211909082,"31":0.06915051698272738,"32":0.9983639336060256,"33":0.13441340205561592,"34":0.11082836160260288,"35":-0.061373277406038866,"36":0.17903125741655318,"37":1.3098928468625421,"38":0.1735516395839391,"39":-0.08885568171654473,"40":0.01670177445414849,"41":0.19845457996035723,"42":1.6810701744756316,"43":0.191580695507966,"44":-0.09204518506803337,"45":-0.07841813534399499,"46":0.06789178024110364,"47":1.1236929258086488,"48":0.16347955106766712,"49":-0.10525087619844156,"50":-0.003301347586327259,"51":0.004003633884772193,"52":0.9574518631072542,"53":0.010218936572350821,"54":-0.12237911240748005,"55":-0.17662883861061138,"56":-0.08133637693216005,"57":0.5527211374646901,"58":-0.11651509151401607,"59":-0.020422226456352197,"60":-0.13350704260958904,"61":-0.030957774292040285,"62":-0.23775122989273176,"63":-0.034100596455492196,"64":-0.12919320146166016,"65":-0.1213862448835367,"66":-0.032480814442685794,"67":-0.2091994846941861,"68":-0.021163134158744042,"69":0.021855580244210984,"70":-0.17876275838503958,"71":-0.0343905061570666,"72":-0.12688258311226425,"73":-0.045478663697659495,"74":0.035935752646037496,"75":-0.11673365984696003,"76":-0.009583255615956045,"77":-0.2948235296735514,"78":0.047726686505518,"79":-0.02245763710309266,"80":-0.044319979244808495,"81":-0.24170148301700586,"82":-0.014187320739315359,"83":-0.16442562194024982,"84":-0.005570848492326184,"85":-0.19588791541398307,"86":-0.14720503161646475,"87":0.1741609611455193,"88":-0.1450943071634033,"89":-0.04333647505580109,"90":-0.09885887795257481,"91":-0.10859198741463708,"92":0.4017102559579443,"93":0.026916635784403557,"94":0.046514348933375464,"95":0.03286659184706052,"96":0.03223873786664823,"97":0.2758364060477858,"98":0.10295570531316545,"99":0.1170316455720234,"100":0.051628745263289894,"101":-0.0361018247264802,"102":0.26897827324643864,"103":0.07938069887477835,"104":0.18076130310680932,"105":0.06782668039680945,"106":0.009995031801661457,"107":0.04479372148986054,"108":0.01967988538593319,"109":0.05660115010752749,"110":0.017052093675827128,"111":0.015416567959297332,"112":0.10061057554183259,"113":-0.040582490193575176,"114":0.1593795415164591,"115":0.09467810856914692,"116":0.018080631194359455,"117":-0.05111756059715977,"118":0.04671511593067361,"119":0.037956425657548434,"120":0.019350107526869668,"121":0.11250157651110676,"122":0.12507788980929851,"123":-0.01126828431508402,"124":-0.011631848046811225,"125":-0.01844425035821826,"126":-0.005034777961739106,"127":0.1764236646786369,"128":0.08660670197997043,"129":0.06658043518567881,"130":-0.09329269245088903,"131":0.12170843372207019,"132":0.285602540517267,"133":0.046872549954087066,"134":-0.10750064745902477,"135":-0.135523075185629,"136":0.04689138004645623,"137":0.6343707832113019,"138":0.06660173528117255,"139":-0.0025829444148156933,"140":0.01398997948352117,"141":0.037549823643725444,"142":0.37760123746669033,"143":0.012835977417658885,"144":-0.03420705972825177,"145":-0.059035033586160156,"146":-0.0007992522441361616,"147":0.3057749107693053,"148":0.1206680733015686,"149":0.011058529079991783,"150":-0.09653940533459864,"151":-0.05688108970377039,"152":0.18006312988663664,"153":-0.030960614592558392,"154":0.07549847286752094,"155":-0.1360704708966574,"156":0.04273245470519741,"157":-0.029904376004881376,"158":-0.0016621460794616334,"159":-0.09849625268640194,"160":-0.09814741800230206,"161":-0.06248956203799618,"162":-0.09622759249120724,"163":0.009615079589616302,"164":-0.09208431943525487,"165":-0.0742544350367223,"166":-0.051330131722670314,"167":-0.138600918782781,"168":0.0434020649170792,"169":-0.021313717533211148,"170":-0.016160797609285023,"171":-0.08817367834733,"172":-0.07532096397873744,"173":-0.02221061810737223,"174":-0.08952564496224114,"175":-0.038326723162030014,"176":-0.18747551379095104,"177":0.03001581835006536,"178":-0.07853598847987847,"179":-0.05231942649104989,"180":-0.126875775470348,"181":-0.13619737699240256,"182":0.17636343614039135,"183":-0.052418380400630946,"184":0.025619194516831346,"185":-0.10060078201500927,"186":-0.06474520516015474,"187":0.2562270733845019,"188":-0.01772866593312548,"189":0.01367894393183667,"190":0.0012261456550931725,"191":0.021362768146052178,"192":-0.0716254382645112,"193":0.03846211779908557,"194":0.02405260880186963,"195":-0.10596748920699665,"196":-0.09066426017008886,"197":0.18350525173851798,"198":-0.007820800949951297,"199":0.025425074904934616,"200":0.008416491710181192,"201":-0.021630272437402343,"202":0.1823520267978912,"203":-0.006182154239817826,"204":0.04912874065317673,"205":-0.12495605230820031,"206":-0.08224238316666674,"207":0.008194476138035117,"208":0.005136078475615441,"209":-0.026940189755228276,"210":-0.004320438698283458,"211":-0.05484730121832573,"212":-0.12427596664751824,"213":-0.07530353156931788,"214":-0.015828860844295287,"215":-0.03954024746271498,"216":-0.06055853035459417,"217":-0.1929220906021731,"218":-0.03341600946789839,"219":0.03341594275600967,"220":-0.10045006718096741,"221":-0.02501538232545619,"222":-0.06874675968252564,"223":0.010025674420119986,"224":-0.08922635666331634,"225":0.005265359611146095,"226":-0.0652208104111508,"227":-0.04079745216830135,"228":0.062627146005619,"229":-0.03828540452622126,"230":-0.0765502080206898,"231":0.016147621458401318,"232":0.2208132834953403,"233":-0.01555535048677434,"234":-0.073239339009378,"235":-0.07964848627278397,"236":0.0003204834356153918,"237":0.22362732466731505,"238":0.053109896192833066,"239":0.01955433583537318,"240":-0.11598839480412297,"241":0.04923528291318917,"242":0.2843990110720058,"243":-0.03760024833650103,"244":-0.02219592255631348,"245":-0.07044355126681798,"246":-0.10110101180822938,"247":0.21021662446942524,"248":-0.0225658871644679,"249":0.021456037937759777,"250":0.019224832964361074,"251":0.048082798083454746,"252":0.12737555099852105,"253":-0.009445362443442924,"254":0.07242527758295562,"255":-0.04726521179770026,"256":-0.03641373586763453,"257":-0.07351853167137415,"258":0.04009647963102598,"259":-0.07441470263767513,"260":-0.07622780826532412,"261":-0.005105129460979363,"262":-0.004699342921518613,"263":-0.0634688052519127,"264":0.06259913985515109,"265":-0.10166713665902376,"266":-0.05490499928706181,"267":-0.024754645013094018,"268":-0.028600212067527404,"269":-0.08938174569461856,"270":-0.11721251800387297,"271":-0.005071100470880538,"272":-0.0432450882628306,"273":-0.027520851159973464,"274":-0.043572291455622865,"275":-0.015948502912556544,"276":-0.12555328970866186,"277":0.07935873019668052,"278":-0.11616239765389853,"279":-0.09494283838805165,"280":-0.015595960031629682,"281":-0.07213717087579334,"282":0.07506802950645938,"283":-0.08504782616816307,"284":-0.055126341384915956,"285":-0.11317700451650523,"286":0.07750624182490093,"287":0.24659608017908968,"288":-0.034780143288972006,"289":0.012907720688430106,"290":-0.001073872187746559,"291":-0.01284150363057805,"292":0.00039904823682826625,"293":-0.03796937101569433,"294":-0.014918911031407776,"295":-0.07455279485663566,"296":-0.16974878678865837,"297":0.13180883353670164,"298":0.07349997967913117,"299":0.020035394236890346,"300":-0.0917045385688821,"301":-0.11443242719366158,"302":-0.039470530309406886,"303":-0.07590811314877129,"304":0.04714979964132927,"305":-0.15905551547314997,"306":-0.049054344282386926,"307":-0.002891364925334634,"308":0.019779612566688167,"309":-0.001693035071804748,"310":0.003608687389541282,"311":0.021265248207364754,"312":-0.10803904487255674,"313":0.011865649343684797,"314":0.0018804484641070957,"315":-0.03053067967745359,"316":-0.12942249381565046,"317":-0.04149322347378549,"318":-0.038488546237769226,"319":0.08346601625483425,"320":-0.04895391814490111,"321":-0.11633063377710255,"322":-0.08185547307381454,"323":-0.03938569165568604,"324":-0.06215869990289299,"325":-0.07481548449440785,"326":0.0004481752562311477,"327":-0.05099254339738978,"328":-0.0038531099286532333,"329":0.004186446759267289,"330":-0.10942616162636433,"331":-0.029367613015870663,"332":0.06751057062515001,"333":0.06662970901500187,"334":0.017411930089937033,"335":-0.14398406205777933,"336":-0.08731605356356636,"337":0.1014170432345601,"338":0.07487973630785766,"339":0.0478741193741892,"340":-0.01693319813289087,"341":-0.005613947836040432,"342":0.2995443733186586,"343":0.00722174640146299,"344":-0.02967200891591027,"345":-0.1286612301085923,"346":-0.030921379194496394,"347":0.152155015090821,"348":-0.016042343728836075,"349":-0.0786032293014985,"350":-0.010243587482733189,"351":-0.08629998724122732,"352":0.07102658892196811,"353":-0.03188343589298297,"354":-0.017593352979937218,"355":-0.140314132265683,"356":-0.05025240176758856,"357":0.016414927849169782,"358":0.026704280441553534,"359":-0.1394313027873998,"360":-0.0504452750029015,"361":-0.1697125313560703,"362":-0.025788448056732843,"363":-0.019640036431750607,"364":-0.06313837291715067,"365":0.04794729965265045,"366":-0.09170173452644,"367":-0.048488222933262985,"368":-0.0024955485241561362,"369":-0.03398434754434186,"370":-0.0870123275669333,"371":-0.11019870180634886,"372":0.024486480186779024,"373":-0.07843515045851404,"374":-0.017531193369922437,"375":-0.04919080772246816,"376":-0.1881949569427131,"377":0.0602981862801073,"378":-0.16546696403585026,"379":0.039287964736269804,"380":-0.047079487794428804,"381":-0.0014888550674659494,"382":0.07031616162457958,"383":-0.035470675089678515,"384":0.046713149810934045,"385":-0.017997690296830328,"386":0.07499649894304448,"387":0.19441537060210912,"388":0.024499374715789942,"389":0.03345520916107003,"390":-0.0038777857752101616,"391":-0.02278859607131751,"392":0.03915795146165879,"393":-0.01995554939070778,"394":-0.07189129762417368}},{"sx":1,"sy":1,"depth":395,"w":{"0":-0.005593030973754061,"1":0.02782758901707303,"2":0.07737358363830633,"3":0.08618287997762887,"4":0.00470138535270368,"5":-0.039415898237429366,"6":0.07605595815199609,"7":-0.04968807930817472,"8":0.05773315462217971,"9":-0.06724126076342848,"10":-0.008879955176718775,"11":-0.05009491570762165,"12":-0.08114342767505188,"13":-0.0158471763257011,"14":-0.011786967640431526,"15":-0.003095222874565878,"16":0.024415806992737526,"17":-0.0858726124648212,"18":-0.06485706347873757,"19":-0.08351607534100083,"20":-0.03067716536424179,"21":-0.040322579005625164,"22":0.018389846017605106,"23":0.034569929723621856,"24":-0.025258363282602902,"25":-0.012807876093241926,"26":-0.03088106906066253,"27":-0.09525707399195261,"28":-0.03490410320521024,"29":-0.023318490677721435,"30":0.020291987209598798,"31":-0.03717215197558402,"32":-0.008952253242110079,"33":-0.06709064918080773,"34":0.06342222037973816,"35":0.037515539855994255,"36":0.14132362818742966,"37":-0.1019316502303488,"38":0.04732393231666625,"39":0.040723523001834766,"40":0.002395063990732407,"41":-0.017583702706721615,"42":0.028636216943438306,"43":0.027270467805268876,"44":0.054099299136158616,"45":0.0403932575958712,"46":0.07041729465449267,"47":-0.013909658860692764,"48":-0.037616944982672075,"49":-0.044984035570698196,"50":0.044261320325243755,"51":0.038972470178970896,"52":0.026628756127011884,"53":-0.02486290007679405,"54":0.04812920237770902,"55":0.09720434499482859,"56":-0.010556822078825148,"57":-0.03791215442986508,"58":-0.09198819426631771,"59":0.06205690432178412,"60":0.04884073764177933,"61":0.013022952155851678,"62":-0.05762631978220579,"63":-0.04259787720278854,"64":0.038018308309383325,"65":-0.09723258837913636,"66":-0.009973398575452163,"67":0.05004248051918278,"68":-0.0045740902635888064,"69":0.008902972592612843,"70":0.03673646788799246,"71":0.0056876937393678315,"72":-0.02696865201405653,"73":0.03141421802543143,"74":0.000042504564501712625,"75":0.03936364498965709,"76":-0.00468710933565419,"77":0.007213569691580895,"78":0.024670820888621613,"79":-0.020148422953952583,"80":-0.07633342221136831,"81":-0.021355547670474144,"82":-0.059974290622283155,"83":-0.059155497156287484,"84":0.09289543614410639,"85":0.05473086846409605,"86":-0.01447735091318099,"87":0.011165306474839366,"88":0.009012211310252056,"89":0.014399182582138287,"90":0.03638342159450986,"91":-0.02860951365944659,"92":-0.06564224167892901,"93":0.07319080449547385,"94":0.006162797636743298,"95":0.0764327866364036,"96":0.004400874765923696,"97":0.058047656523505936,"98":-0.02926164686813294,"99":-0.02835173511076663,"100":-0.00927498430060535,"101":-0.01726044172817096,"102":-0.07137406182160144,"103":-0.04782961534155162,"104":-0.002637014278624847,"105":-0.039310355532537075,"106":0.006683117341253894,"107":-0.03373445219367108,"108":-0.06766404474198637,"109":-0.025949458064559137,"110":0.01876230898726449,"111":0.020894612296977685,"112":-0.03784381846922516,"113":-0.0370947750763314,"114":0.029385933210978304,"115":0.03982218382591615,"116":-0.02983353501116593,"117":0.016961073135114947,"118":0.015084683109112504,"119":-0.07110446941174947,"120":-0.05090119672790338,"121":-0.02534888476564731,"122":0.06191094063795437,"123":0.09119983942972443,"124":0.01861337340802487,"125":0.009613411410907158,"126":-0.05309555793712554,"127":-0.033359071990449116,"128":-0.07265612056770043,"129":0.018230069481567645,"130":0.02996606600146969,"131":-0.0006913846705106253,"132":-0.020193813542857396,"133":-0.1261621151759781,"134":0.017009117548065174,"135":-0.04367865786783399,"136":-0.1081683831604386,"137":-0.008272396232412561,"138":0.11089092144038806,"139":0.002049195473937482,"140":0.11183042819963714,"141":0.037901393894416435,"142":-0.02119379199538773,"143":-0.05290412671878143,"144":-0.000019407579534483234,"145":-0.023771811139040745,"146":0.0288877503127039,"147":0.11216242778990222,"148":0.037212541775933944,"149":-0.0016644294969119326,"150":-0.01951966157069083,"151":0.030317514028906974,"152":-0.060034291950826754,"153":-0.08841008991889866,"154":0.06196946874378751,"155":-0.05568848128721403,"156":-0.07159166416274768,"157":-0.08454990204000883,"158":-0.01780141290406215,"159":-0.06858493438444581,"160":-0.030164626602491446,"161":0.05554152021199378,"162":-0.009348065710344997,"163":0.06399428127982029,"164":-0.003683260001529914,"165":-0.06628902885297608,"166":-0.10731043792226627,"167":-0.0015282449945952634,"168":-0.049081195728438706,"169":0.028103891459536564,"170":0.08366072402514285,"171":-0.10469186740372985,"172":0.007341084279210347,"173":-0.04459962533348071,"174":-0.04098359926570858,"175":-0.00522979700095098,"176":-0.032646177227961745,"177":-0.13718927394494865,"178":0.054752827402374166,"179":-0.007872865458341533,"180":0.05940859296363246,"181":-0.02308865135256677,"182":-0.0589386062494725,"183":0.03003151943998363,"184":-0.006407861969339637,"185":0.03514537888064481,"186":-0.03132078125470972,"187":-0.03333399505755683,"188":0.00644495926974874,"189":-0.03947395593657445,"190":-0.1840340547389153,"191":-0.1406604019270437,"192":-0.05607940170698634,"193":0.023854522538963068,"194":-0.011629826754922572,"195":0.04579526585393439,"196":0.026922206978021678,"197":-0.09692943554995578,"198":-0.011825435036113798,"199":0.02888089269821054,"200":-0.045661721057616796,"201":0.029986332686033557,"202":-0.0002471541151909368,"203":0.037492114435761593,"204":-0.008878229968110878,"205":-0.0033965874512335036,"206":-0.0007626352995902223,"207":-0.030516846230223608,"208":0.05597409896192579,"209":0.04298878317332793,"210":-0.0020962175356489684,"211":-0.07231178891304696,"212":0.004219495236475688,"213":0.03877408155138493,"214":0.06291897647387837,"215":0.033789502726360957,"216":-0.020424831803166107,"217":-0.08465428677899489,"218":0.16158988752979822,"219":-0.038531089240543104,"220":0.01847044566515829,"221":0.014515376248757102,"222":-0.07713054371189167,"223":0.04857444122768697,"224":0.00045666755872146304,"225":-0.010178371504321333,"226":-0.0025210233570192686,"227":0.03083435466153776,"228":0.0787416721476,"229":0.011872258402992985,"230":0.03891084952369995,"231":0.04278635274888488,"232":0.06387791476389984,"233":-0.03763777485725536,"234":-0.03092001774669504,"235":0.013516859579450053,"236":0.0694558810840633,"237":-0.03145780307725724,"238":0.11730773749238055,"239":0.06436788987605936,"240":0.02831055997538294,"241":-0.01764027561309549,"242":0.06650447688846269,"243":-0.004026628008797696,"244":0.017304833422932795,"245":0.02759712022803873,"246":0.05168483942215674,"247":-0.080557058834286,"248":0.04516530996243481,"249":-0.06389190726476233,"250":0.008567185607131572,"251":0.027855823537599484,"252":0.022085340306820026,"253":0.009176989806852979,"254":-0.09240878745890647,"255":-0.04323279577993243,"256":0.06975429183721062,"257":0.06350102308217692,"258":0.07547913460268359,"259":-0.053174173759012615,"260":-0.05458250819231221,"261":0.026242304014666897,"262":-0.026695535784748377,"263":-0.03317461897639383,"264":-0.029639453236500822,"265":0.021703590204233295,"266":-0.004664809606274203,"267":0.028774974381166312,"268":-0.06453778003885868,"269":0.029678886905062065,"270":-0.05027945858510797,"271":0.009009808002466512,"272":0.03713772663605028,"273":0.03874817600751706,"274":-0.11314087853709259,"275":-0.051562523143890024,"276":0.048942843202531984,"277":-0.022739621298407602,"278":-0.04021719577446381,"279":0.019534639570248345,"280":0.04287915211111243,"281":0.07484237883061542,"282":0.04126718338574791,"283":0.019711207010116936,"284":-0.1215089534488543,"285":0.006119752630493372,"286":0.024388519639279647,"287":-0.018479543560966732,"288":-0.016804144711235442,"289":-0.06576514377590348,"290":-0.043213968494433715,"291":-0.20524366794336535,"292":-0.00007538483348525409,"293":-0.14049840960130625,"294":0.03755722291646716,"295":0.06970737249817621,"296":-0.09640281906744383,"297":0.04111725624254924,"298":-0.026562081742437346,"299":-0.10382646293630128,"300":-0.006519557310182767,"301":-0.08653246247548636,"302":0.005505171961798046,"303":-0.09130854747270688,"304":-0.04255421599296358,"305":0.004040003475108215,"306":-0.010149441050804611,"307":0.020731554814232573,"308":-0.06172416058427017,"309":0.023994171013502066,"310":-0.08176936079437337,"311":0.0497321011457414,"312":-0.044471677325935266,"313":0.07604493795085265,"314":-0.07262492356240845,"315":0.06116591185044736,"316":0.07203210857613176,"317":0.005850098163254767,"318":0.021791108836689842,"319":-0.06815729100118921,"320":-0.019632249040730625,"321":-0.042890767070321356,"322":0.02825220723160259,"323":-0.006558739142798071,"324":0.0423334830653566,"325":0.016714089425915662,"326":-0.0408418580086005,"327":0.01860453271819683,"328":-0.059255927428506466,"329":0.035913860254290414,"330":-0.001128546914411547,"331":0.10512747135820986,"332":0.0022023327937236554,"333":0.008952344716553031,"334":-0.012751189736473328,"335":0.007125918333263118,"336":-0.028972367821308947,"337":-0.019971191201233304,"338":-0.028105383871756453,"339":0.04361804271983485,"340":-0.02770183480538803,"341":0.02873885897609448,"342":-0.06453532064613965,"343":-0.020073820462988112,"344":-0.02158610629203928,"345":-0.11293216420377002,"346":0.04083785269407347,"347":0.01745944933960206,"348":-0.008661616128641967,"349":0.026445163401397534,"350":-0.08321063583758354,"351":0.10682552457875234,"352":-0.0011015114558055408,"353":0.06310221376979269,"354":-0.041653693489689156,"355":0.008738314081637376,"356":0.028795259290524136,"357":0.037156625073015426,"358":0.021878437639457488,"359":-0.04289983272061218,"360":-0.011917797446043179,"361":0.017931592025394766,"362":-0.005715625561821058,"363":-0.046153117048590084,"364":-0.03218048462073512,"365":-0.020472476302540437,"366":0.028762353537374857,"367":0.07815177922139838,"368":-0.03740055713196977,"369":-0.0138976597295163,"370":-0.012885154486571132,"371":0.06085549895118915,"372":-0.10997876627794775,"373":-0.02825513952015059,"374":0.08130350738155537,"375":0.014824202033453087,"376":-0.01053366729792986,"377":0.0386173465701273,"378":0.006548085989579147,"379":0.0019799585310877506,"380":-0.0007785040672034477,"381":0.025562809616284574,"382":-0.05072106463997729,"383":-0.016796526410569824,"384":-0.021996347064299534,"385":0.022022523344224325,"386":0.01261447614846825,"387":-0.007115179025953001,"388":-0.04792026845042037,"389":0.03013229595741215,"390":-0.07562373505736274,"391":-0.15770483872860028,"392":-0.13654319840729007,"393":0.04581554488955264,"394":-0.08163403520345187}},{"sx":1,"sy":1,"depth":395,"w":{"0":-0.10351398250620433,"1":-0.008113821680843446,"2":0.0898909355796775,"3":0.055831669002060026,"4":0.05049473729566875,"5":-0.031627648032921445,"6":0.07318366376976612,"7":0.017542791206417566,"8":0.0505199729473808,"9":0.02170869180130459,"10":-0.0014563184868146238,"11":-0.01766171172914682,"12":0.040901212338044814,"13":0.10192475500418838,"14":-0.16231424936832506,"15":-0.03199736738713084,"16":-0.07137897331082627,"17":-0.018549942333572083,"18":0.02978566374013207,"19":0.004868069772249337,"20":-0.03996174665104532,"21":-0.015089493028606155,"22":-0.08726033654152966,"23":0.04927355300653113,"24":0.07435066688661623,"25":-0.03960563528781431,"26":0.0230556130697341,"27":0.16648084485114836,"28":0.09653525762790884,"29":0.04879817552295804,"30":0.044212258825666845,"31":0.08610990697233159,"32":0.18448275942804448,"33":0.003014451373597292,"34":0.029541138898163698,"35":0.008472825589371812,"36":0.10658476173707729,"37":0.21530496178718628,"38":0.0332896523730334,"39":0.03542863823694195,"40":-0.0036780885904883734,"41":0.002355239754422695,"42":0.18603837964679001,"43":0.06423433370171,"44":0.04966479910172303,"45":0.034642317052042716,"46":0.008201967520125612,"47":0.036025698397179486,"48":0.0053619535269248285,"49":0.07626481897883945,"50":0.044574418439712084,"51":0.030924267635985644,"52":0.08496311165875566,"53":0.05011484651727645,"54":-0.015047487492688314,"55":-0.06590567504847195,"56":0.03361728970838707,"57":0.08777146276235423,"58":-0.0245162257810823,"59":0.04048695542068016,"60":-0.044444650813422824,"61":-0.046716318345386476,"62":-0.03828733442027955,"63":0.0058994447916973294,"64":0.05015372105205885,"65":0.03630384411764439,"66":0.03354111628786353,"67":0.03268281532655618,"68":0.017453558210923547,"69":0.0491701033905817,"70":0.05655598913171392,"71":-0.0823124188228327,"72":-0.0028828506838075047,"73":0.003989973125170841,"74":0.015985079501832127,"75":0.034631769994740665,"76":-0.05311444607387296,"77":-0.030658604312663637,"78":0.09343165259016918,"79":0.08778764789233105,"80":-0.03210737082920177,"81":-0.05069497269550761,"82":0.02880715898759115,"83":0.004372399850320637,"84":0.03641024950080838,"85":0.02761315482096774,"86":0.026523228344568703,"87":0.04472827214314316,"88":0.008297485986994509,"89":0.008782169221070422,"90":-0.029219728816833206,"91":0.05612984071467573,"92":0.06254792530717168,"93":0.14379777567265278,"94":0.09486616818042752,"95":0.02797904764021784,"96":-0.04840886774403095,"97":0.08831043457251526,"98":0.015197798843387001,"99":0.13265614646538584,"100":-0.08871039481967635,"101":0.055126596815322546,"102":0.07515583686847277,"103":-0.07834017852832252,"104":0.07262102995911957,"105":-0.0009667113704269106,"106":0.06496044344322748,"107":0.008358244617817074,"108":-0.0258071895366643,"109":0.07781265040485108,"110":-0.04933277764852902,"111":0.04064562533408962,"112":0.004978355543833952,"113":-0.00005348538041009982,"114":0.10055583941771028,"115":-0.06742877565446467,"116":-0.06002030653795173,"117":0.012958606590316822,"118":0.0253122029510329,"119":0.013383636403202531,"120":-0.06079399631967651,"121":-0.0045173228009737065,"122":0.1959886963958018,"123":0.04814591209351603,"124":0.1066774108751413,"125":0.009828784418787335,"126":-0.045850606706988824,"127":0.09229808663241777,"128":-0.04780284760522127,"129":0.13724686860289478,"130":-0.008864002693550126,"131":0.008373971648698396,"132":0.06172387475234919,"133":0.06692866613910513,"134":0.06123999655306653,"135":-0.040894275889849084,"136":0.007415041286635699,"137":0.03564743162346706,"138":0.036792183871401964,"139":-0.027524207674179933,"140":-0.04135690927615846,"141":0.005256344296428858,"142":0.025008511968860028,"143":0.03403391302022043,"144":0.006542282761264174,"145":-0.051958744936284586,"146":-0.0475774836533739,"147":-0.04603610368263846,"148":0.0322862313955677,"149":-0.012593794079834558,"150":-0.11407113433486712,"151":-0.06697073621963752,"152":-0.02621299044726119,"153":0.05426391307266369,"154":0.06158306568705059,"155":-0.04495359103650263,"156":0.03624282156488583,"157":0.11040268321228637,"158":0.021157982568708277,"159":-0.012585794980295932,"160":0.10613973145661178,"161":-0.061864509784642675,"162":0.086727423650707,"163":0.09730864494414976,"164":0.12534704207909675,"165":-0.001359343116192828,"166":0.0816486839398435,"167":0.0964907853155184,"168":-0.04034041804944737,"169":0.0924062669702134,"170":0.0037773956233212278,"171":-0.08252286874231458,"172":-0.026884545727667436,"173":-0.024129485751204997,"174":0.09872731966713397,"175":0.045272989567281256,"176":-0.08369835729624306,"177":-0.030366235271029076,"178":0.05208447546858277,"179":-0.018863473009235063,"180":-0.04367976906737157,"181":0.05679995330755274,"182":0.05123802263412674,"183":-0.009392255245168383,"184":0.053100565384727544,"185":-0.03087582096406913,"186":0.046402755519945355,"187":0.09587221687067211,"188":0.12034305499223324,"189":0.05594563372121836,"190":-0.15492302331630944,"191":0.09791363300041857,"192":0.00003212186877623448,"193":-0.1433762180878557,"194":-0.08582534177798026,"195":-0.03856851688610609,"196":0.05219020310731065,"197":-0.01943924743148558,"198":0.10059778829413459,"199":0.09885834901660526,"200":0.04967730104639882,"201":-0.010480837119014947,"202":0.014315704432043434,"203":0.15195582407030914,"204":-0.020743997977367628,"205":0.04578708329602122,"206":-0.058762068646661815,"207":-0.01554940187293878,"208":0.029145353155933435,"209":0.0688303299110419,"210":0.023085034425621275,"211":-0.041569319638527634,"212":0.026175195772167998,"213":-0.059181719589962135,"214":0.031678546263706885,"215":0.01016633207865587,"216":-0.045227571851009,"217":-0.0449215013541722,"218":0.04359606430996255,"219":0.03138070489569959,"220":0.01761302078474819,"221":-0.019929473707399874,"222":0.06772226525172267,"223":0.008045181291556418,"224":-0.03195862137040441,"225":-0.007327783601516431,"226":0.029495832404022346,"227":-0.0028778800460858268,"228":0.04243697357303945,"229":0.07221239049937711,"230":-0.04760774806483112,"231":0.0023450107825725517,"232":0.05862153141517166,"233":-0.025829026027115867,"234":0.06747723108818945,"235":0.0010251187399647791,"236":-0.040283877749575966,"237":0.15527610630980895,"238":-0.0162546904053949,"239":-0.009968659286991796,"240":-0.004329348303510367,"241":-0.010591628106588634,"242":-0.05971990066852934,"243":-0.02423741987828381,"244":0.048338253462314726,"245":-0.021820592382543545,"246":0.005064021336484531,"247":0.022791542489864283,"248":-0.003036365057877327,"249":0.050437618598220414,"250":0.04659099877357628,"251":-0.025070892989601568,"252":-0.005175238699664408,"253":0.07344479783001745,"254":0.006150023174893461,"255":-0.04055942876883136,"256":0.07451217424430534,"257":-0.008986124327467017,"258":-0.016928139484958502,"259":0.07813184372193133,"260":-0.0090616490405055,"261":0.01845444852910549,"262":0.054391407014479316,"263":0.0004960994303728213,"264":0.02339929831176696,"265":-0.004237791691953936,"266":0.09003317641347544,"267":0.05353962049416079,"268":0.0345083702402293,"269":-0.012644600703646583,"270":0.003206484978820781,"271":0.026567064468989685,"272":0.011525432875533896,"273":0.04027999456962254,"274":-0.0908997678298658,"275":-0.016022439378032355,"276":0.08347845744946798,"277":-0.011348496850675502,"278":-0.07236075594965796,"279":-0.02691233321970834,"280":0.04380684153114188,"281":-0.010013176691574003,"282":0.006058397409198021,"283":-0.031666038679007046,"284":0.013016940474567784,"285":-0.013692076025030234,"286":-0.011132988741732009,"287":0.006839565629410658,"288":-0.006313240272303386,"289":0.07564516188402459,"290":-0.04974683639520583,"291":-0.043032701703961646,"292":-0.16567808532279174,"293":0.013593010815418343,"294":-0.08365480610251791,"295":-0.022939972272508043,"296":-0.0033098726172149434,"297":0.05546180370157962,"298":0.01150071620584098,"299":0.03225658700905025,"300":-0.08781160712967526,"301":0.0018550304893356197,"302":-0.014546021561040687,"303":0.10566125336111527,"304":-0.02511781742509337,"305":-0.028081207697359313,"306":-0.053254799100107705,"307":-0.11197294954357502,"308":-0.051953608775833694,"309":0.10077722802878053,"310":-0.07222435581327377,"311":0.029197668513619206,"312":-0.023564200972396806,"313":0.0746426471360905,"314":0.08618163609944378,"315":-0.05439633489254043,"316":-0.062165913848472205,"317":0.025523356972173842,"318":0.0057173925769474256,"319":0.0728448101503907,"320":-0.10343737953072114,"321":-0.03928152731267847,"322":0.0080079558558682,"323":0.11433373256382352,"324":-0.0989080289694253,"325":-0.05857990433245722,"326":-0.10670180233344265,"327":0.05734990465660921,"328":0.04014536389058896,"329":0.005837808748209043,"330":-0.0026199148827462703,"331":-0.038439431008865745,"332":0.006067029904145662,"333":0.017652619542023174,"334":0.05126997687084399,"335":-0.0619619417770034,"336":0.013844051880916464,"337":0.10250169771685448,"338":0.07904072678085707,"339":0.057789010945829264,"340":0.029954711789103115,"341":-0.03573159948799268,"342":-0.05304070267369978,"343":-0.019003224609198795,"344":0.007431049461848995,"345":0.060511682565515826,"346":-0.028780958390727505,"347":-0.0022496889112476417,"348":-0.06804588723001155,"349":0.07052068905653049,"350":-0.054192004488148676,"351":0.04710794205864426,"352":-0.06014790848118838,"353":-0.05016840074249179,"354":0.03518497120526518,"355":-0.07721002908471974,"356":0.0006866121125294154,"357":-0.018323279064058468,"358":0.08717584244054749,"359":0.0344504415363246,"360":-0.029764287142196654,"361":-0.010603044771843326,"362":0.0027896492591075266,"363":-0.022087102291467386,"364":0.051751963131223086,"365":-0.025084979558829604,"366":0.13024499123031102,"367":-0.13508657101325985,"368":0.10202628496240633,"369":-0.01146716102767995,"370":0.09889311847663322,"371":-0.06545136460451548,"372":-0.040264018488857155,"373":0.038858270905996146,"374":-0.007453786848300597,"375":0.03611695896650552,"376":0.022716901453914636,"377":-0.03484829396040757,"378":0.0910681163021268,"379":0.15139743687602644,"380":0.052746085142596634,"381":-0.04586630166617134,"382":0.052339923071835354,"383":0.0736016522484279,"384":0.10258587008986046,"385":0.06082787962146622,"386":0.005556139377052843,"387":0.012152056168980494,"388":0.1264130075950518,"389":0.09998276764999148,"390":-0.139844061670845,"391":-0.1738170522811902,"392":-0.04222779074499845,"393":0.14240314619308947,"394":-0.016688971748229506}},{"sx":1,"sy":1,"depth":395,"w":{"0":0.005007987832376065,"1":0.0006689667371256798,"2":-0.01734917731129617,"3":0.02433936138002501,"4":-0.03903986936930537,"5":-0.07092793015350035,"6":-0.03069668028626944,"7":0.07602346307623106,"8":0.03789899554278302,"9":0.026283615913552327,"10":-0.09309435987692374,"11":0.0877009689036413,"12":-0.0005286944835379597,"13":0.054939712321857376,"14":0.0676200736523375,"15":0.04704576225551836,"16":0.046392582794590465,"17":-0.001827883623943232,"18":-0.028873137597040792,"19":-0.013500258228556947,"20":-0.065062694057487,"21":0.015339964350489168,"22":-0.005570383694930377,"23":0.0463987371150325,"24":0.029935293112504383,"25":-0.0034111419413592253,"26":0.02043395522362323,"27":-0.01804100048597424,"28":0.056739622701181776,"29":-0.032876604225405004,"30":0.0320451624526706,"31":-0.024415857138418044,"32":-0.007986604301637825,"33":0.0556897714394182,"34":-0.058156095811177415,"35":-0.0005311529560139172,"36":-0.001405016241068134,"37":0.0330270989934026,"38":0.11041497630387374,"39":-0.001002495950737267,"40":0.04249495150687377,"41":-0.01360291163838855,"42":-0.004664068780813726,"43":-0.01362419842020697,"44":0.0248083380326334,"45":-0.05728048681997651,"46":-0.050740343529221806,"47":0.0010756069424196065,"48":0.02479144614962814,"49":0.018381372026491195,"50":0.034579152970411454,"51":0.0413865147811013,"52":-0.06974349777930182,"53":0.028384416745742075,"54":-0.05672468661213891,"55":-0.023181995358651952,"56":-0.014904866994193869,"57":-0.0023302805076465625,"58":-0.10251075906969122,"59":0.00713133937267782,"60":0.010786085040883313,"61":-0.027198495118155617,"62":0.08066006360977573,"63":-0.01200125106853457,"64":0.0047370896679792005,"65":0.005425343078031283,"66":-0.06694688539979751,"67":0.03150561520478043,"68":-0.017343449824604635,"69":-0.09905282334146638,"70":0.0015660370712363533,"71":-0.018287859986710828,"72":-0.02278457941340663,"73":-0.00936208820237431,"74":-0.026107364506475505,"75":0.04484978890019718,"76":0.03655799413253858,"77":-0.049571660951982253,"78":-0.0227803718754271,"79":-0.054568207044172486,"80":0.046896866158617,"81":-0.05218118627816756,"82":0.014278453585437155,"83":-0.049005036540123594,"84":-0.05496597653674976,"85":0.08098936384778632,"86":0.05332735206093763,"87":-0.0348975198393581,"88":-0.034029480040028294,"89":-0.01538677338099805,"90":0.0627557131473628,"91":-0.00853875664634655,"92":-0.00045553180203924986,"93":-0.01788342309751024,"94":0.0018572329686955206,"95":0.001249757975637826,"96":0.07415763987349297,"97":0.02458126960254445,"98":0.046352327718524544,"99":-0.039767321580246054,"100":0.0845325068728938,"101":0.03752281093165517,"102":-0.01309292072424894,"103":0.05997016685887138,"104":0.02526509305077428,"105":0.05896718799882424,"106":-0.05623332669157406,"107":0.024883662852401994,"108":-0.08738572868026744,"109":0.058228370708451216,"110":-0.004124762384217805,"111":0.007079630210392076,"112":-0.004885433200085655,"113":0.018061704591450328,"114":0.10864407592064713,"115":0.03828968931957183,"116":0.06084823656759375,"117":0.11274240963266842,"118":0.07372713432373278,"119":-0.034608620688920816,"120":0.05710537883672235,"121":0.06245576838581405,"122":0.09325764473590589,"123":0.028390079785529633,"124":-0.054712220253632315,"125":-0.08226752906704456,"126":-0.03481113872107463,"127":0.14266748512665683,"128":0.01982013440364577,"129":-0.03791708987451333,"130":-0.027252755810489835,"131":0.015473574243961136,"132":-0.03834012161768453,"133":0.027578849494270953,"134":0.0745765401646103,"135":0.03507001205188959,"136":0.05616406492782524,"137":0.0033480725237314047,"138":0.04235259295573056,"139":-0.08012769633759917,"140":-0.07489321133282344,"141":-0.009644577038630503,"142":-0.09829927989425365,"143":-0.10305434226318144,"144":0.033193867974054096,"145":-0.015360914110950847,"146":0.030260473918132323,"147":-0.00515171336162553,"148":0.036004678910696544,"149":-0.06635170104001024,"150":-0.08549424953754846,"151":-0.001340579754199261,"152":-0.024273213527146946,"153":0.00926454854617369,"154":0.0012578055984897123,"155":0.023492124585975594,"156":0.002455404028266023,"157":0.0026471246453027104,"158":0.01091795872230532,"159":-0.10439356910552858,"160":0.018200198742041727,"161":0.027004479138927822,"162":-0.014075354724420112,"163":-0.011111829252084645,"164":0.02233018689781471,"165":0.05982755836603923,"166":-0.05064214033441738,"167":0.019341590544843808,"168":-0.017716085187873126,"169":-0.07984473433996457,"170":0.008690760772318463,"171":-0.026942279271946555,"172":0.040078870318388304,"173":0.03407081591166087,"174":-0.07760582980510446,"175":-0.1106994171642799,"176":-0.031654226751695616,"177":-0.1040522273975763,"178":-0.05233535752819658,"179":0.06678940531858694,"180":0.01443058496706351,"181":0.01157938407688843,"182":0.06801541532791101,"183":-0.017798243860578253,"184":-0.046100058222402734,"185":0.021561467761925295,"186":0.037901385766951685,"187":0.029588541403604583,"188":-0.015043136968540873,"189":0.06697684453428818,"190":-0.059661370583170115,"191":0.054329534014078494,"192":-0.14707961882196144,"193":-0.06034142697160615,"194":-0.0021024036689988,"195":-0.04059194009125464,"196":0.06492436529387637,"197":0.050836136328664,"198":-0.04367273258303187,"199":0.0202221959682431,"200":-0.014213083794100502,"201":0.0018299893259643971,"202":0.03595263357602926,"203":-0.03888020289943005,"204":-0.023824057593564728,"205":-0.0057074938134184725,"206":0.07221882647758739,"207":-0.013885804262054728,"208":-0.014447238855988196,"209":0.06949070705354182,"210":-0.025631270586331127,"211":0.09416790133618405,"212":-0.012959448157228073,"213":-0.07073825097616332,"214":-0.04539046060697373,"215":-0.0032309022899260046,"216":0.1153095264898851,"217":0.04513335833825108,"218":0.028701933464325445,"219":-0.07603767563633235,"220":0.008473281993999352,"221":-0.06145153647178119,"222":-0.010463713601006433,"223":0.0038868639146607646,"224":-0.02614481026241208,"225":-0.043666180430598146,"226":0.05332604675087228,"227":0.05981427973908038,"228":-0.011663860384439187,"229":-0.013071360654010529,"230":0.020138754300744247,"231":-0.048194555629411856,"232":0.042107977632228656,"233":0.016362526878829123,"234":0.032324284401536736,"235":0.023863019053755128,"236":0.04927216497620268,"237":-0.0498575530574562,"238":-0.0022788726849920006,"239":-0.0454539938058936,"240":-0.007357149449430153,"241":-0.004260571686027414,"242":0.016829872439452533,"243":0.0014964302232262396,"244":0.011569425456205354,"245":0.005098754289451591,"246":-0.03656240360580276,"247":-0.026724552084380966,"248":-0.017714659569159713,"249":-0.026350822982214642,"250":0.017194289965186692,"251":0.11458045815775109,"252":0.04269068244486021,"253":0.0018438259503158825,"254":0.04176928460564161,"255":-0.02599739035908073,"256":0.030195099173522325,"257":0.027803430343426493,"258":-0.0001424137516545743,"259":0.09517578070680738,"260":0.001244174816836673,"261":-0.07998301134977277,"262":0.012678080580889687,"263":-0.05311018739488481,"264":-0.07792901463719201,"265":-0.0005732004996170294,"266":-0.0006706885462324435,"267":-0.013614732442773324,"268":-0.06548436519895064,"269":0.007336083262703663,"270":-0.09895990681339689,"271":-0.003325727009026837,"272":-0.09293793541217107,"273":-0.013892489942764276,"274":0.09533245755359092,"275":0.006802804442485304,"276":0.0006473028399826428,"277":0.06276227360805336,"278":0.00034684991615947775,"279":-0.0638207324360497,"280":0.05523413714482901,"281":-0.033253354644203405,"282":0.03221546357821088,"283":0.06313064831024408,"284":0.018323237563183648,"285":-0.030062726160182563,"286":0.03355920938900772,"287":-0.044125421858769893,"288":0.041228201455015934,"289":-0.013130590746584554,"290":0.13036469305267312,"291":-0.1601995754600919,"292":-0.10233406943847821,"293":-0.06114492271016787,"294":-0.04368131015966993,"295":-0.032156991674813465,"296":-0.020510694488986916,"297":0.07047746848622433,"298":0.015522654995358367,"299":0.014186062053043841,"300":-0.05144341373234362,"301":0.10846337820201012,"302":-0.04927161733519451,"303":-0.13753944059434625,"304":0.04932817313649896,"305":-0.008513537780335778,"306":0.03405138801662874,"307":0.03270653156101174,"308":-0.02116681009808347,"309":-0.001366692250650287,"310":0.12735421911504266,"311":0.1345478080998537,"312":0.055907634214202036,"313":0.06463688685300996,"314":0.08840675388409398,"315":0.03974925216329806,"316":0.03477881590782695,"317":-0.10710282852834806,"318":0.05894028849853683,"319":0.058863508861693725,"320":-0.09422692836854764,"321":0.00648753477739337,"322":0.0539504563745274,"323":-0.032588938390783605,"324":-0.02268911906822326,"325":0.05808353877432665,"326":0.06321761387345809,"327":0.017184164415694356,"328":-0.05458449119216158,"329":0.012493712005239873,"330":-0.040653087117984835,"331":0.10676237688684849,"332":0.059873793388464026,"333":0.015985098937288354,"334":0.09834629556742208,"335":0.05114713311966696,"336":-0.032432134875137214,"337":-0.011311618738199093,"338":-0.07580962330400708,"339":0.023360053978800387,"340":0.02712200477552123,"341":-0.08896566409703614,"342":0.06552553319592129,"343":0.06794030018794106,"344":-0.05008953722996183,"345":-0.016920676084994674,"346":-0.10364106127754467,"347":-0.048425394021006755,"348":-0.05211275625088459,"349":0.01626934349167025,"350":0.03232723696664011,"351":-0.00011803336191023922,"352":-0.010753552585991706,"353":-0.04733705988158626,"354":0.08951880635540277,"355":-0.03928382595261348,"356":0.047160407756741594,"357":0.007194426226022601,"358":-0.11374640972246723,"359":0.09648499549711115,"360":0.014435981299227529,"361":0.06130888489738278,"362":0.0724546793524653,"363":0.04486388897109022,"364":0.1071609596557684,"365":0.04639500666495146,"366":-0.021933608149059668,"367":0.01438177555789917,"368":-0.036933563205742426,"369":-0.04780574232166296,"370":0.0037502183081373533,"371":0.0005080764752930277,"372":0.08416417758087484,"373":-0.010183562056695353,"374":0.07243061102287625,"375":0.0201242426187505,"376":-0.019902379341439416,"377":-0.08920800683235132,"378":-0.027620032122066474,"379":0.07034154614055847,"380":-0.02677022146932473,"381":-0.037693719713496845,"382":-0.004534958133404472,"383":-0.06340641140884141,"384":0.021805664721354284,"385":0.025056774292449648,"386":0.01581067884167974,"387":-0.008538409920011286,"388":0.05061189673423532,"389":0.016780966213659296,"390":-0.11330418769175568,"391":-0.10899635414067951,"392":0.1137813044617345,"393":0.00851058399342927,"394":-0.17222891749767527}},{"sx":1,"sy":1,"depth":395,"w":{"0":-0.06272771961462491,"1":0.003970358558874711,"2":0.043308553608168904,"3":0.01741821718228683,"4":-0.010130999209266621,"5":0.0022960941177060695,"6":0.0121491667946526,"7":-0.029520638569108873,"8":-0.08168958680189717,"9":0.08600228274946511,"10":-0.001955540928417793,"11":0.006395512706986023,"12":0.04510358937124182,"13":-0.1494575031301496,"14":0.02079318132593047,"15":0.04092054352034824,"16":0.044190793747832705,"17":-0.07713115952924018,"18":-0.10372629264316507,"19":0.11880154206667304,"20":0.06530436244400281,"21":-0.060586685498499424,"22":-0.000008529667220574346,"23":-0.03273748818915612,"24":-0.05136332945379844,"25":-0.09383168067122408,"26":-0.04332781758502727,"27":-0.042963222877565675,"28":-0.0390125778873674,"29":-0.06369665151687776,"30":-0.012088962740229399,"31":-0.003218948408232014,"32":0.01864011162716118,"33":-0.054983383414656244,"34":-0.012894860306898022,"35":-0.043464402915346916,"36":-0.04254050141644464,"37":0.0004150609347064802,"38":0.03766762467359183,"39":-0.002585879601455757,"40":-0.051552528748286926,"41":-0.0409166764960748,"42":-0.006845970304883265,"43":-0.046319453056817006,"44":0.0038654803657564795,"45":-0.0006570397024157888,"46":0.011679607922070998,"47":-0.08763348191679984,"48":-0.054041734651589256,"49":-0.020103270131926504,"50":0.09558977811174908,"51":-0.08896145219643245,"52":-0.030090769746857378,"53":-0.008939499499657113,"54":0.02465403718127229,"55":-0.010348148519050342,"56":-0.05601989164611025,"57":0.061595376042212636,"58":-0.0289090473055857,"59":0.0011129209131157541,"60":-0.07568867706388635,"61":0.02432460443889593,"62":-0.0431905642501354,"63":-0.023735766898349463,"64":0.06196511041507134,"65":-0.06774939856721907,"66":-0.0019005044649535786,"67":-0.02233124627676796,"68":-0.0784374392971897,"69":0.06529018878027772,"70":0.03292728001683466,"71":-0.013928296208875092,"72":0.045210015094463374,"73":0.0029121623589240366,"74":0.05900366666580779,"75":-0.019520720325975745,"76":0.009402155851106257,"77":-0.02298436055437679,"78":-0.026782912795457886,"79":0.03414309439211454,"80":-0.042294537337592086,"81":0.04854193729855277,"82":-0.012730916239731854,"83":0.081893988944133,"84":0.11659042754702745,"85":0.0020380076254488235,"86":-0.01797107375590586,"87":-0.03233071670020463,"88":-0.007444520597685535,"89":0.05258831666029087,"90":-0.048840459607933095,"91":-0.10495182912838338,"92":-0.05348792820319527,"93":0.02144200888582741,"94":-0.07784515462408503,"95":0.05437557319818244,"96":0.03852380152000207,"97":0.0342126502958766,"98":-0.08074134135642351,"99":0.019815055011682892,"100":-0.014653245151701317,"101":-0.04470680338644576,"102":0.027427985896477113,"103":-0.024373265417373533,"104":-0.0012786093867221192,"105":-0.05429985645635771,"106":-0.01141828381087721,"107":-0.00029633500439868265,"108":0.09837636805051966,"109":-0.12025147743071843,"110":0.027393948746570168,"111":-0.056759123005775756,"112":0.026097665845653817,"113":-0.014508438485107838,"114":0.08235041592140353,"115":0.02327224530918606,"116":0.046480031616138735,"117":-0.072153075673957,"118":-0.08964545890007568,"119":-0.023246588635992764,"120":-0.06305252387080332,"121":-0.007824622401976431,"122":-0.03009874565863205,"123":0.01367111641441036,"124":-0.06968665508557065,"125":0.049649119078701925,"126":-0.0009773269662731775,"127":-0.008858947691766084,"128":-0.11181293907784004,"129":-0.05865735111330321,"130":-0.0069075779893194985,"131":-0.034327704735489586,"132":0.0037651298932664568,"133":-0.058754717411108125,"134":0.0024724868044778644,"135":-0.03690677589457416,"136":0.10922627589593581,"137":-0.0030436998886305025,"138":0.043874466892231914,"139":-0.029510244555661043,"140":0.03777251446179957,"141":0.0054825845222476535,"142":-0.05176032236011677,"143":-0.04851176639195344,"144":-0.020627461826924105,"145":0.005159922894651083,"146":-0.11066875390222798,"147":-0.07977327400672368,"148":0.0292080978551682,"149":-0.030329069729939227,"150":-0.08015375836871691,"151":-0.040312628503587335,"152":0.009169886370868787,"153":-0.010207040257279403,"154":-0.04592390945971063,"155":-0.003188484939563604,"156":-0.005365206326506346,"157":-0.03560490123183548,"158":-0.04791502535877754,"159":-0.051189795019648696,"160":0.00781296070880242,"161":-0.07913522496699768,"162":0.06174286837968608,"163":0.039401716075773675,"164":-0.03392071389844284,"165":0.024858008535925277,"166":0.006257822232390289,"167":-0.03708809402360549,"168":-0.000029945342070812884,"169":0.10661037481695408,"170":-0.006681112544425,"171":-0.059766987012424465,"172":0.048480245018808786,"173":0.08744954125620953,"174":0.04531319378510171,"175":-0.004282312539048265,"176":0.07081539203399492,"177":-0.038908936880908296,"178":-0.003311557089815891,"179":0.040832449896761505,"180":-0.012617428436631568,"181":0.02757199406550129,"182":-0.057015575375602916,"183":-0.008965805511101039,"184":-0.03423072119510549,"185":0.10273474454093168,"186":-0.06226797234418467,"187":-0.0337920036697651,"188":0.04651770879353922,"189":-0.08062245514957855,"190":-0.13566464463702316,"191":0.09184053168465157,"192":-0.11950153799041942,"193":0.04490754578205091,"194":-0.18330569827672086,"195":0.048745596108080325,"196":-0.034452078040748645,"197":-0.01632839721832099,"198":-0.021945839509162072,"199":-0.03646092244270111,"200":0.044678050591310914,"201":0.0019517737468187752,"202":-0.05435761221984725,"203":-0.0003095646885831895,"204":0.011239375584160787,"205":0.06827306198105325,"206":-0.06376452081270936,"207":-0.15403850852372045,"208":-0.03478453433265008,"209":-0.010639025995576559,"210":-0.04616596352452571,"211":-0.043166006533219954,"212":0.03685863895092697,"213":-0.04430161876644829,"214":0.1186988286393558,"215":0.05749018065147676,"216":-0.04161223296569875,"217":0.040394383423199426,"218":0.05854048127619807,"219":0.032195143026555816,"220":0.06358720700523553,"221":-0.014757555095483082,"222":-0.009812162183152302,"223":0.0334426818047207,"224":0.04515605048588367,"225":-0.026197385323349254,"226":-0.051915298521307315,"227":0.09601019729091802,"228":0.04775368347852487,"229":-0.048904588712235665,"230":-0.027874557312829316,"231":-0.10373232703220552,"232":0.08193582341785431,"233":-0.08360168725260492,"234":-0.0653026670168621,"235":-0.029632463455439864,"236":0.0449241095580426,"237":-0.1125454541715568,"238":-0.03732280478880722,"239":-0.011718985310583411,"240":0.08144033412608195,"241":-0.008957121979259101,"242":0.040677026728210545,"243":-0.016910745678591774,"244":-0.035558495795961154,"245":0.01652908643664134,"246":-0.11432761757464424,"247":-0.04641237652334168,"248":-0.0797041839340511,"249":-0.0585125281009675,"250":0.028300782344381003,"251":-0.061554422622114253,"252":-0.0933765870817241,"253":-0.07209115355628053,"254":-0.05171840181267229,"255":-0.026923729214469352,"256":0.011864931209056651,"257":-0.03943339052766314,"258":-0.036920836392713666,"259":-0.09044721412975212,"260":0.023093573469760372,"261":0.03593200799169487,"262":0.09209180993844977,"263":-0.009859611720962915,"264":-0.1184227474102227,"265":-0.03097885177894653,"266":-0.03997403073120904,"267":0.024765014694934237,"268":-0.02071861840799813,"269":-0.03780669549620087,"270":-0.041172840892791454,"271":-0.03938372320852074,"272":-0.05497217383391493,"273":-0.018626498015683588,"274":-0.04267610515170663,"275":0.05132824272275062,"276":0.029247212639686326,"277":-0.05684767480466421,"278":-0.03235474856661287,"279":0.09828381253577853,"280":0.002589676378147355,"281":0.03370505070915311,"282":-0.017978797935539033,"283":0.024121993903481635,"284":0.015754627552965444,"285":0.0441935694237525,"286":-0.06330527961039369,"287":-0.11718779369537596,"288":-0.06782022909084372,"289":0.04509680512011599,"290":-0.005921535267500773,"291":0.04207577397172682,"292":-0.07263905643604855,"293":-0.13881594113150897,"294":-0.09403319171232516,"295":-0.04154648817603171,"296":0.010720134389102633,"297":0.023597774322006045,"298":-0.11152183782093728,"299":-0.009717501801482755,"300":0.07381160963804943,"301":-0.03729958580597442,"302":-0.03225306608845343,"303":0.023781645654881164,"304":-0.026098235511967056,"305":-0.10344429606954932,"306":-0.06253360654566072,"307":0.06404096156878425,"308":0.09552645120763649,"309":0.02957915135765141,"310":-0.009436122763725649,"311":-0.02593556117339685,"312":-0.03903154385318797,"313":0.06356920426372743,"314":-0.054155259348244396,"315":-0.01993838168174269,"316":0.00269421300759641,"317":0.0004992615809185797,"318":0.09877969600503966,"319":-0.06643041401581713,"320":0.003948226735041845,"321":-0.015299564144733343,"322":-0.11489135701658182,"323":0.014235022809611822,"324":-0.08083902380058605,"325":-0.014682205191936337,"326":0.010223128346572252,"327":-0.06011075736275431,"328":0.012884343818048462,"329":-0.1355325407494706,"330":0.10199051488108007,"331":-0.003829165315813079,"332":0.0034452090281094764,"333":0.03564284748825046,"334":-0.10990330367939012,"335":-0.0014497710579149717,"336":-0.04464855957021896,"337":0.04681348424954496,"338":-0.059778820825802687,"339":-0.0633434317272491,"340":0.06731508269998329,"341":-0.0009070373315982936,"342":0.003631360085951822,"343":0.04245748098940438,"344":0.018103616332803125,"345":0.08216485707743013,"346":-0.0007332043554933524,"347":0.021270682141257335,"348":0.027766526873678966,"349":-0.011972164485632552,"350":-0.06537462525926081,"351":-0.007634040526744135,"352":0.04338099026758251,"353":0.04880865378098326,"354":0.01822061257600496,"355":-0.05283651471349508,"356":-0.010444292021493846,"357":0.045664441809942946,"358":0.035115165002167395,"359":-0.12369019105256078,"360":0.03478221534157132,"361":-0.1228118088733377,"362":-0.030182517299440506,"363":0.029324815034646106,"364":0.0008473439874282869,"365":-0.015806225049417092,"366":-0.010563491322170236,"367":0.11388819956634046,"368":-0.005587030073758609,"369":0.010042034465436828,"370":-0.003960269787410086,"371":-0.046735111610939836,"372":0.03495134805010426,"373":-0.04304515725895858,"374":-0.06614644057715141,"375":-0.033852285409553345,"376":-0.018545032064218293,"377":0.0467599897555224,"378":-0.03125829446188045,"379":-0.010882611323582161,"380":-0.02568593526769788,"381":0.02025035974461065,"382":-0.07502071542373433,"383":0.024246774561635574,"384":0.05193750407290209,"385":-0.04240266651972744,"386":0.07989879009040474,"387":0.07092766024081722,"388":0.02507085751170123,"389":0.017250692569020114,"390":0.12326807621948803,"391":-0.1618353835841456,"392":-0.03920221187367155,"393":-0.20928535986246466,"394":0.054779263045793475}},{"sx":1,"sy":1,"depth":395,"w":{"0":-0.007236329566708319,"1":0.005736748515025004,"2":0.0440573754538046,"3":0.09868632216639982,"4":0.02338679664030313,"5":-0.026000182612022242,"6":0.015844056595548762,"7":0.03499201895444486,"8":0.08381407926949376,"9":0.0212263300256744,"10":-0.10750512203366042,"11":-0.030316406478204706,"12":-0.0014411814469185479,"13":0.039995669070056056,"14":-0.05350685477206245,"15":-0.020569474426353998,"16":0.07709185659713336,"17":0.027929620269778615,"18":0.03479741495609866,"19":0.017941268973384814,"20":0.01728505171624314,"21":0.10849818794853096,"22":0.031179734149161892,"23":0.007447575515567984,"24":0.03915602521647973,"25":-0.07790429169628439,"26":-0.06656066485810101,"27":0.006970923866375324,"28":0.0389572021191025,"29":0.02613099485589997,"30":-0.05583456296706857,"31":-0.059394149372696416,"32":0.04129477992620231,"33":0.07352532935952137,"34":-0.010724353163278461,"35":0.03036475366765434,"36":-0.041929063330755564,"37":0.07028631488577498,"38":-0.011170976523383695,"39":0.0468371932471035,"40":-0.008851944675676246,"41":-0.025449531169846648,"42":0.12354518707705227,"43":0.007533870266610925,"44":0.002661973849568253,"45":-0.057091812572954474,"46":0.0705144996861144,"47":-0.00015644046611629946,"48":0.0004076085499431172,"49":0.04830340491288291,"50":-0.061526527291453394,"51":0.05083441704233462,"52":-0.05128514163369077,"53":0.07352629065334247,"54":0.07685036977838398,"55":-0.03924261188009653,"56":-0.0741141988035056,"57":-0.004394383516556313,"58":-0.047668522624196456,"59":-0.02323898328293731,"60":0.06933739656542859,"61":0.03409397191918477,"62":-0.00046656986594597845,"63":0.03811204726227141,"64":0.027262326620577194,"65":-0.01159437068833946,"66":0.012374814180918924,"67":0.01399103559301746,"68":0.02157637808006579,"69":0.11224127282581547,"70":-0.00880892472611845,"71":-0.027543750000850204,"72":-0.0230128475435416,"73":-0.02578581095588459,"74":0.006912167026236911,"75":-0.09072281941313397,"76":-0.0009819505645159072,"77":0.033064220661830124,"78":0.019263608157329484,"79":-0.02068984829349737,"80":0.03359237391658707,"81":-0.017441253704762665,"82":-0.09044977048859337,"83":0.020607175307319557,"84":-0.061284191354690536,"85":-0.07373425472887099,"86":-0.016042057643696723,"87":0.09262109615652259,"88":-0.0030458717005541164,"89":0.005268733509227234,"90":-0.01420066313312467,"91":0.0013180956225638935,"92":-0.022018840481792482,"93":-0.007088835393030849,"94":0.04466307352196738,"95":0.0078704929271711,"96":-0.049983795730911725,"97":-0.025292880617909044,"98":0.04595074576107528,"99":0.01891651807939412,"100":-0.024561563342841992,"101":-0.03159461559103693,"102":0.04886508702818322,"103":0.018144213371354256,"104":-0.06412634266470119,"105":-0.05068198911157804,"106":0.04603248528888649,"107":0.03490083945475826,"108":-0.002837449512113787,"109":-0.05755483589111042,"110":0.06087113034563991,"111":-0.04137641579243571,"112":-0.08306655464696507,"113":0.09356296091548938,"114":-0.018341627766503606,"115":-0.05573391584204338,"116":0.0040220436921357735,"117":0.022730110821068544,"118":0.02015099969919001,"119":-0.0008106268726428904,"120":0.04534211003575597,"121":-0.032530224765316876,"122":0.03823914540811039,"123":-0.051901013475123596,"124":-0.0028772243137234355,"125":0.017166348316343814,"126":-0.020729268709916045,"127":0.02833540232452048,"128":-0.059854016198310635,"129":-0.03650794394083802,"130":0.05555407185579081,"131":0.02947817453536187,"132":-0.004788578375825932,"133":0.0028519740786697835,"134":0.051800118758109456,"135":-0.03661666818067872,"136":-0.0046258976306491435,"137":-0.07605619845950676,"138":-0.002962957269945585,"139":-0.030957936916018794,"140":-0.06245846421098077,"141":0.00866209677789791,"142":-0.04308011906031269,"143":0.04917578221036363,"144":-0.0020402347110824834,"145":0.039734037765654984,"146":0.08619212449441938,"147":-0.0068892787996071795,"148":0.10407606871658885,"149":-0.06194429206517204,"150":-0.04307114988143767,"151":-0.03280843078362618,"152":0.03222477631719529,"153":-0.1100602616304957,"154":-0.07944312245441834,"155":-0.06382740947129076,"156":0.06716258717158799,"157":-0.017453055979772182,"158":-0.0811682473536767,"159":0.002718446084846251,"160":-0.034900345221141285,"161":-0.07276853668789983,"162":0.08245614595331359,"163":0.010036359836925144,"164":0.10046808653436065,"165":0.033135761527263545,"166":-0.06241983882314085,"167":0.13728751859658084,"168":-0.057471591286237036,"169":0.20937417106515668,"170":0.025555179835748478,"171":-0.0015125254453491224,"172":-0.05502496431921352,"173":0.07555964166982472,"174":-0.04161181314097882,"175":0.026327751594133225,"176":-0.029569950650282745,"177":-0.04119271055482463,"178":-0.014720356312953063,"179":-0.007015977052402981,"180":0.034204504982471004,"181":0.042473582647763596,"182":0.024705494531239512,"183":0.07437970291803009,"184":0.0546324861036592,"185":-0.017681138215632074,"186":-0.048480267172912324,"187":0.04440158795810752,"188":0.01652499499777318,"189":-0.008123079249783683,"190":-0.02012863315858585,"191":-0.1170691393815002,"192":-0.11107874071417238,"193":-0.0931275451251613,"194":-0.04945110625814999,"195":-0.07208145881219587,"196":-0.014384452410942574,"197":0.011627117227022924,"198":0.011503679157933103,"199":-0.057302972009647256,"200":-0.04551270072441125,"201":0.05589655440119123,"202":-0.02489178781569497,"203":-0.0020313462995620317,"204":0.027774898909870088,"205":-0.12052409646072144,"206":0.040021733598684266,"207":0.03241341579079398,"208":-0.03560265073101894,"209":-0.013169270371530513,"210":-0.04984118301277059,"211":-0.018332413477575,"212":0.047311356170507295,"213":0.054159560574789524,"214":0.0348845465949688,"215":0.03744284090274897,"216":0.06483003354517386,"217":0.0041618610310848545,"218":-0.030299919952579354,"219":-0.026139613919209097,"220":-0.12285441314643206,"221":0.06546116151026474,"222":-0.023538488075711583,"223":0.07348906666204894,"224":-0.0517790293432897,"225":-0.03840605088651586,"226":0.002508663043557165,"227":0.0042908691841944775,"228":0.019529651898569762,"229":-0.07294677647943265,"230":0.015307337115466852,"231":-0.016091090875209102,"232":0.04230671358180463,"233":-0.01881383801157102,"234":-0.1148134763115567,"235":0.04458132269679146,"236":0.06446406960034679,"237":0.0967696901112458,"238":0.009920695130400647,"239":-0.05941677039204292,"240":0.020621286339219922,"241":-0.028640403509812055,"242":-0.00568442226080361,"243":0.00040871714122478166,"244":-0.06706593041374502,"245":-0.005693194171883903,"246":-0.04141411622520561,"247":0.07389447936062528,"248":-0.05230250668923312,"249":0.003345703885262128,"250":-0.01402405129842576,"251":-0.027465460462397617,"252":0.05740678415616946,"253":0.032944173933165025,"254":0.02877116511244529,"255":0.03539622068399392,"256":-0.02571155902172643,"257":-0.09689101723361306,"258":0.03546911039637513,"259":0.04004623468285502,"260":0.03490246650331045,"261":-0.041583954632341665,"262":-0.02215549477739346,"263":-0.0351328062731318,"264":-0.007631744947063083,"265":-0.04559679281149186,"266":0.050737025860390146,"267":0.014105260669176922,"268":0.0897359865111294,"269":-0.07267508447734343,"270":0.07914438319514075,"271":0.056063131314712744,"272":0.05927958343464418,"273":0.022036986774453742,"274":-0.0018894609874648622,"275":-0.0468481533775299,"276":0.00545071252791399,"277":-0.021307613350238997,"278":-0.03806935817672816,"279":0.0016070428658732597,"280":-0.08217369741559047,"281":-0.07834345717270219,"282":0.005820416310959174,"283":-0.0830464328191904,"284":-0.05488315877114737,"285":-0.06332685737553213,"286":-0.02036135759233077,"287":-0.031137056206105164,"288":-0.07609263218857781,"289":0.05045450397955083,"290":-0.06233820168948467,"291":-0.13727933978089998,"292":0.005595035867636451,"293":-0.0586528991295944,"294":0.0010491583114844024,"295":0.023799728099598207,"296":-0.06736133608917264,"297":0.018774574614548713,"298":-0.013575674324762232,"299":-0.01907833770514586,"300":-0.0626809608735639,"301":-0.10486807773716665,"302":-0.06456950514898681,"303":0.00044820686196077715,"304":0.008128878458675715,"305":0.0655986547042315,"306":-0.030381057882574704,"307":-0.011095820077626143,"308":0.046123859429253095,"309":-0.04422729752483711,"310":-0.05591229179105271,"311":0.0619943066514202,"312":-0.12106465276894782,"313":-0.08263679738641994,"314":0.02233932802034961,"315":-0.059983034792349454,"316":-0.04521735821709098,"317":-0.017006965342914824,"318":0.01588926907335929,"319":-0.027563685800837803,"320":-0.00696849811724392,"321":-0.03314945219793096,"322":0.006747513151408749,"323":0.03161356435769001,"324":0.028267305070249958,"325":-0.07916913645801125,"326":-0.027385489736454192,"327":0.03148471830210347,"328":0.03269020220854599,"329":-0.012311085475252875,"330":-0.0946328148365571,"331":-0.05446242502417423,"332":0.09127656944971431,"333":-0.011545931197866361,"334":-0.06202878398521913,"335":-0.06215127829544903,"336":-0.012759827032852446,"337":0.02833755414890675,"338":0.04183999358007458,"339":0.004148886695118858,"340":-0.04461693303578246,"341":-0.007868753450701389,"342":-0.02233039580234182,"343":0.024228461665563434,"344":0.067610590522254,"345":-0.02561253190324295,"346":0.06265836685052519,"347":-0.07520217267522888,"348":0.10085174705367551,"349":-0.027416865457037642,"350":-0.01513318891897841,"351":-0.019800892087803928,"352":-0.0033101709175906335,"353":0.00021394749927478162,"354":-0.036798087318309525,"355":0.07254592587661705,"356":0.014101464968914396,"357":-0.09268182585927114,"358":0.01063899240210776,"359":-0.07350699612171684,"360":-0.008086689757717496,"361":0.08772686364880038,"362":-0.016466655762390356,"363":-0.0032871470750263495,"364":-0.005655390779341632,"365":0.03965866933997388,"366":0.09627587502457804,"367":-0.09132901443887947,"368":-0.01758733055140446,"369":-0.012694193824944737,"370":0.02153862363334378,"371":-0.039298401588571986,"372":-0.03840437826405598,"373":-0.10291536185282135,"374":0.07604061001811638,"375":0.06084038729102308,"376":-0.04674488928037877,"377":-0.009213504283301184,"378":0.015453592231108173,"379":-0.00578722601903459,"380":0.026085737547972908,"381":-0.0852277575331466,"382":0.011776615187924534,"383":0.0243159306829214,"384":0.04346234918244001,"385":0.034780094621226255,"386":-0.03307461921441098,"387":0.060753664272627475,"388":-0.07358413320472072,"389":0.047978657884702354,"390":-0.08500404355500982,"391":-0.02822006485291897,"392":0.004931109588562056,"393":-0.06350658597541825,"394":-0.05702356776181409}},{"sx":1,"sy":1,"depth":395,"w":{"0":-0.012946105456340675,"1":0.049816037005199376,"2":0.12018546892275483,"3":0.0639670418668537,"4":0.03420471717985722,"5":0.05349510537730161,"6":0.08127982453376063,"7":0.2161493519643487,"8":0.13781114109359163,"9":0.017052482548988078,"10":-0.014040883135574684,"11":0.038778873653691544,"12":0.11891593813177924,"13":0.05621701320446904,"14":0.00885049073960675,"15":0.12293045861170115,"16":0.07767862245908885,"17":0.1541669609423744,"18":0.04343604608038737,"19":0.03605516808138471,"20":0.03801993710367808,"21":0.10473524222114088,"22":0.102413114513142,"23":0.14954057390806727,"24":0.05280612863609359,"25":0.108984615804053,"26":0.03665493368305129,"27":0.2269934077141019,"28":0.07953459612881016,"29":0.11465655407663519,"30":0.0388667342547928,"31":0.08079193622151402,"32":0.3273963997278959,"33":0.050237449900314465,"34":0.03294348965884479,"35":0.05800789920249263,"36":0.16800060837717162,"37":0.5506742578494134,"38":0.15441184552186507,"39":0.03261750370750806,"40":0.03006055051951558,"41":0.17199248472520237,"42":0.6857524648631825,"43":0.1780338723083133,"44":0.028593201213077256,"45":0.007017493111261274,"46":0.12254836701000552,"47":0.49635722351267086,"48":0.10341549403436845,"49":0.08441599363272015,"50":-0.019200904048328683,"51":0.006998005250959457,"52":0.4457782239218226,"53":0.10459867001711905,"54":-0.0016718899556808276,"55":-0.029431292678878427,"56":-0.01048784802606562,"57":0.2532915869881037,"58":-0.07391886336539827,"59":0.0634126392116726,"60":-0.06175343453556377,"61":0.019047244280943548,"62":-0.0446023850032417,"63":0.03884830741138534,"64":-0.05509811001000185,"65":-0.1186518848047878,"66":-0.06094414247035216,"67":0.031068541195177383,"68":0.03937537931602235,"69":0.02999335632520576,"70":-0.06877235120585258,"71":0.0326338553775806,"72":-0.04554017654215922,"73":0.058172931200861366,"74":-0.026815729373871465,"75":-0.021818997685705124,"76":-0.02566935759558418,"77":-0.05824693452144221,"78":0.06008805568012311,"79":0.06777256690600163,"80":-0.06101909164642674,"81":-0.04681118013240552,"82":-0.058410932363539045,"83":-0.034421520550012796,"84":0.001829378217361097,"85":-0.047280871953657586,"86":0.032141779130223536,"87":0.058272156620393645,"88":-0.0389666371439398,"89":0.03155588439695834,"90":0.022973997047944866,"91":0.014324394670706224,"92":0.08115867679371903,"93":0.033542075539714056,"94":0.1017485958234589,"95":0.05180487026561549,"96":0.0025567017268392058,"97":0.038396177084110104,"98":-0.007837445423725201,"99":0.16619562075843125,"100":-0.04639013718307031,"101":0.07524857358932514,"102":0.16094238389600937,"103":0.07156867067175328,"104":-0.013757810199843524,"105":0.05658865720744918,"106":0.03582276516622535,"107":0.026499842948167745,"108":0.06529471518295472,"109":0.08347705846439918,"110":-0.015946391437568794,"111":-0.03846867278811117,"112":0.03719275708154454,"113":0.03379851681673922,"114":0.061145206176871116,"115":0.03264835843697991,"116":-0.04065427635890884,"117":-0.0698069526904208,"118":0.0973284388471714,"119":0.06031231443358495,"120":0.004773096780464339,"121":-0.03516663315673039,"122":0.0002646454960499761,"123":0.08731445702341585,"124":0.005506431369952195,"125":0.049218563763675414,"126":0.057435466361869796,"127":0.08583384958097348,"128":0.03983407982529172,"129":0.07010013590867993,"130":0.05806968335334445,"131":0.1043267674083628,"132":0.17553446553667368,"133":0.017568396983783305,"134":0.03289087456338103,"135":-0.011411238681569395,"136":0.01653700860243028,"137":0.20349214291834955,"138":0.08278389031453835,"139":0.054928340687779326,"140":-0.06916537345154106,"141":0.0868382454321259,"142":0.19825889325724672,"143":0.13162475390983827,"144":0.07891813016834363,"145":-0.04744388419863134,"146":0.03100012864064664,"147":0.16239675372835446,"148":0.07952110455430653,"149":-0.05263767320713405,"150":-0.013086898100218004,"151":0.05859354066858233,"152":0.050452917686789764,"153":0.12094407008886415,"154":0.08428860044070263,"155":-0.03275089248796435,"156":-0.0018718249364893006,"157":-0.0912287419361458,"158":0.10393267063005263,"159":-0.013701255110332641,"160":-0.000863368861779968,"161":-0.05864380750492488,"162":0.09170170073339087,"163":-0.043221655480262876,"164":0.10509811712588986,"165":0.026907081851088775,"166":-0.07523212622492718,"167":0.08516521251601213,"168":-0.047361331018374024,"169":0.01462336374508096,"170":-0.04555606606896339,"171":-0.10248173444606637,"172":0.07264076886560052,"173":0.012964783769919238,"174":-0.04659863592807591,"175":0.07608169695608383,"176":-0.031303864560360856,"177":0.05226516261600814,"178":-0.03670293545701613,"179":-0.0061783190253642106,"180":-0.057368803103319196,"181":-0.06882737995309278,"182":0.06644478546137955,"183":0.0003082385852793612,"184":0.09357083412001384,"185":-0.009723268298671732,"186":0.057819745729098614,"187":0.10355250916395374,"188":0.11243163726365148,"189":-0.041852912666246925,"190":0.03593640941141471,"191":-0.04070648898547238,"192":-0.019829209766281948,"193":0.049762611340847515,"194":0.022262682027326598,"195":-0.001424434975601677,"196":0.014569692020454435,"197":0.08542910440349434,"198":0.060022036387439935,"199":0.042998711263387564,"200":-0.07033761364744547,"201":-0.052356471172793406,"202":0.04372604562053109,"203":0.05267408869204247,"204":0.03389349788093285,"205":-0.05905495947116324,"206":-0.04264379989921065,"207":-0.011725478608813285,"208":0.017624616514125082,"209":0.007946901069168098,"210":-0.05595014865033802,"211":-0.04942925595150171,"212":0.016148654765229642,"213":-0.012060458039687933,"214":-0.04832575868186122,"215":0.03619958752550657,"216":0.006949495300104789,"217":0.024293714862719026,"218":-0.04337898800353432,"219":-0.06270991028890986,"220":-0.004029349290009935,"221":-0.0030808974874694485,"222":-0.056546020463501684,"223":-0.029730486651873302,"224":0.06739793777354747,"225":0.08465240119828751,"226":0.020974386089607434,"227":0.049784785905005284,"228":0.005140886114758226,"229":0.039623392615985416,"230":-0.05275300644378897,"231":0.07451885560303159,"232":0.14129880288618513,"233":0.07688356689463595,"234":0.12524008211860832,"235":-0.023564880217117872,"236":0.13749188490472836,"237":0.09193608490282147,"238":0.017058966282094207,"239":0.08449367756307138,"240":-0.09470337953531463,"241":0.029025590028215212,"242":0.1328947171270937,"243":-0.03708466028730376,"244":-0.05403163733302379,"245":-0.07313165733422942,"246":-0.05162499060679314,"247":0.11427668309207367,"248":-0.007508453337539502,"249":0.0070790653593050794,"250":0.05328390254906585,"251":-0.0526333804056826,"252":0.06850123038786338,"253":-0.043600846194551034,"254":0.0003937213549872836,"255":-0.04481514246632542,"256":0.037873801197337936,"257":-0.05746199223951035,"258":-0.09959850403290392,"259":-0.02894707050299813,"260":-0.05423622522776333,"261":0.013955359662786467,"262":-0.02683957441753372,"263":0.013355079887627673,"264":-0.011547569585876192,"265":-0.015940972233564554,"266":-0.05524554608322114,"267":0.028621758317216722,"268":0.012040564311811828,"269":0.0743953196710984,"270":-0.04694962637383361,"271":-0.023006837881567797,"272":-0.0018779092741898515,"273":0.04767975684347882,"274":-0.013533560625972522,"275":0.059245893507703096,"276":-0.07674354121995303,"277":0.007428470497759578,"278":0.04713106297598186,"279":-0.06483118084486038,"280":0.007049111423666457,"281":-0.019522720582681095,"282":0.05418863123982252,"283":0.05641576710889415,"284":-0.01054554717659589,"285":-0.07351474160908819,"286":0.1012215163695736,"287":0.1581042962825682,"288":0.08663891250201337,"289":-0.04921826042245048,"290":0.003069526040063086,"291":-0.030927732812090936,"292":-0.17800568976622147,"293":-0.04028165017480039,"294":-0.016652097187002654,"295":-0.05691577826249397,"296":-0.07268264849489595,"297":0.034096571586034255,"298":0.032118732278006795,"299":0.04968108647620276,"300":-0.04465274425239367,"301":-0.021980748227015616,"302":0.035343506901583124,"303":-0.006968977486811061,"304":0.02632782328969347,"305":0.06420712607717975,"306":-0.05017761582085586,"307":-0.08119929848966054,"308":0.035373729301473145,"309":-0.005423736463471792,"310":0.05030257978681991,"311":0.027760939689440385,"312":0.006265236900830881,"313":-0.006036218028650263,"314":0.015092996394977402,"315":-0.00608454843968219,"316":-0.062243432249581725,"317":-0.00993671620015321,"318":-0.007460908853581917,"319":0.023042029285595064,"320":-0.052311871197338815,"321":-0.10410381722361134,"322":-0.10917985055734179,"323":0.017286373319614814,"324":0.0011450304422571346,"325":0.03018853982375405,"326":-0.10812669319100603,"327":-0.10474870514437092,"328":-0.00794587717586296,"329":0.020965799297604865,"330":-0.05355571797677681,"331":-0.014859270734187888,"332":-0.06469578488227451,"333":-0.003138185285455029,"334":-0.10722084017468338,"335":-0.09204765338895414,"336":-0.039627911806701825,"337":0.03420087284875439,"338":-0.006246653870132179,"339":-0.04660027539901874,"340":-0.015152217431723462,"341":-0.03188194556116557,"342":0.08831221047622206,"343":-0.06333616316410144,"344":0.025105968780133225,"345":0.015051558975399754,"346":-0.02738855028266045,"347":0.06101105221893024,"348":-0.016269655478598065,"349":-0.06762713911876075,"350":0.012845964314034588,"351":-0.06753794032032476,"352":0.004506405575192685,"353":0.037881060428138165,"354":0.05714365500187846,"355":0.03629190591416288,"356":0.01573036600209274,"357":-0.037843995328927175,"358":-0.008715238877772015,"359":-0.03925603302978595,"360":-0.014503405467355287,"361":0.039900086227227606,"362":-0.03597308031423097,"363":0.046174731112888154,"364":0.04174970666479234,"365":-0.05417103619559929,"366":0.0011712630176347275,"367":0.04392664112493394,"368":-0.050847866828956645,"369":-0.012441580743701537,"370":-0.023902835721070766,"371":0.021117682142061358,"372":-0.00744436019975976,"373":0.03556311969980618,"374":0.004992636285461407,"375":-0.11480177026336046,"376":-0.07033302071307407,"377":0.04758811973942503,"378":-0.048588267956108544,"379":-0.055733878959511596,"380":0.06392425180844814,"381":-0.029518632384229162,"382":0.08395074367702278,"383":-0.002388508930260309,"384":0.028891255768527094,"385":-0.06800453381897537,"386":-0.04602047013745933,"387":0.11617399968448874,"388":-0.048438198096630664,"389":0.03514148032146785,"390":-0.009680376351509118,"391":0.006751287311784563,"392":-0.09009886352517064,"393":0.0015277152655107447,"394":-0.026271113288843635}},{"sx":1,"sy":1,"depth":395,"w":{"0":0.052618205978601236,"1":0.033481101827814115,"2":0.016043299249779902,"3":-0.024667403724374506,"4":0.07686252822811615,"5":0.010442248858243415,"6":0.04679785849301898,"7":0.014063228818364292,"8":-0.014787060171794904,"9":0.03404683278875403,"10":0.024604708745889974,"11":-0.08485375747925601,"12":0.04932162974512797,"13":-0.033357131053492396,"14":-0.057041064179314586,"15":0.07145438822581163,"16":-0.004626618236681596,"17":0.006065971065770602,"18":0.043718080861197786,"19":-0.03178049716353885,"20":-0.035179048958464486,"21":0.02177792835414069,"22":-0.07093103074481077,"23":0.037945789241405,"24":-0.022952723588053694,"25":-0.05127433507634741,"26":-0.007147550966569438,"27":0.025158642632868468,"28":-0.008855210644422488,"29":0.03864719735469763,"30":0.0345850803936404,"31":-0.056881701540716756,"32":0.11145238307545605,"33":0.020386202485846553,"34":-0.03099661723280596,"35":0.04881091751378677,"36":-0.037355846166670696,"37":0.032411013690699736,"38":-0.022272972996836716,"39":-0.02675453068901449,"40":-0.04890021296456649,"41":-0.0465636388715558,"42":-0.017671641425902846,"43":0.10058285036614041,"44":-0.053848461931065926,"45":0.06306615594241907,"46":-0.028254686819047307,"47":0.03095121496221498,"48":-0.05773866568735738,"49":-0.06535715771742565,"50":0.04436566120828994,"51":0.034041048701971006,"52":-0.07337311297250194,"53":-0.010219938086128985,"54":-0.03714771379382806,"55":0.019145771260064157,"56":-0.04922200568546941,"57":0.005310009241715303,"58":-0.035489654141276514,"59":-0.0747039813036374,"60":0.04757761276344058,"61":-0.04294105978016854,"62":0.003603377585306812,"63":0.079226340546905,"64":-0.040755462048736014,"65":0.018587087284608172,"66":-0.0008212418744023719,"67":0.02011823412673699,"68":0.021609050272675213,"69":-0.0008892876696602411,"70":0.04565579618672169,"71":-0.045685118526013514,"72":0.0806237635462765,"73":-0.002130104527188864,"74":-0.051856493801158025,"75":0.003333074456148006,"76":0.013483356021220153,"77":-0.04175546594536052,"78":0.05682977082220431,"79":0.008540487449441561,"80":-0.020888941425997242,"81":-0.028583714671976956,"82":-0.007362255956913457,"83":-0.006217116608018497,"84":0.05331460004470071,"85":-0.09124136256056585,"86":-0.016403092125950612,"87":0.027962435478309355,"88":-0.02861355483161893,"89":-0.013485271596741823,"90":-0.03257956455697719,"91":-0.0038490496603360543,"92":-0.045845126476003605,"93":-0.13096873317487312,"94":-0.027722215091079798,"95":0.016572825675662345,"96":-0.02309265387535081,"97":0.11465376918660385,"98":0.006210109478491103,"99":-0.06204057116389666,"100":0.05340698701682458,"101":0.08054098017826995,"102":-0.008951718483936283,"103":-0.018374033320921305,"104":-0.05197513484694227,"105":0.05334044857463245,"106":-0.00031485905498378387,"107":0.03204928105468303,"108":0.015883337038202622,"109":-0.01628857554861153,"110":0.0857485176457611,"111":0.020610186355859008,"112":-0.053284234420893514,"113":0.045097638385968815,"114":0.01775695071045536,"115":-0.07733511297051111,"116":0.050004359073098865,"117":0.05390222339656318,"118":0.02511251281995198,"119":0.05985052900012775,"120":-0.0360227668174632,"121":0.01729674576402247,"122":-0.025711755634680238,"123":0.029748934368618567,"124":-0.0045574235041967075,"125":0.02592793712565749,"126":-0.07577526042638262,"127":0.00009555602625824902,"128":-0.0585184721964612,"129":0.053317408827579967,"130":0.07965147704059324,"131":0.07035067492497044,"132":0.023054723501604164,"133":0.04771522560776873,"134":-0.10320516817581604,"135":0.023406748978446825,"136":0.047808470525483815,"137":0.027952700216460364,"138":-0.01521811759757386,"139":-0.10217939066492415,"140":-0.02725697259016164,"141":-0.0013688001095273341,"142":0.037987290133678214,"143":-0.0016491342122268112,"144":0.03633887894221651,"145":-0.02403261695012498,"146":-0.035243596069068614,"147":0.0007287443725199723,"148":-0.007139199362523539,"149":-0.0005557518919314965,"150":-0.08738276369068886,"151":-0.08589043777911226,"152":0.09043114709852842,"153":-0.034091842071417446,"154":-0.08794536002499968,"155":-0.0020365161309564466,"156":0.04705541816051671,"157":-0.017319894490366257,"158":-0.023918541199733905,"159":-0.060907458107964524,"160":-0.052733545441010145,"161":-0.015278605958166524,"162":-0.013903012063827309,"163":-0.07195578977410348,"164":0.1424312385290283,"165":-0.1180799586870362,"166":0.029617545828089877,"167":0.004558388278159871,"168":-0.10600570643692446,"169":-0.06155851983705229,"170":0.04037910912566697,"171":0.044868428644830635,"172":0.03268780191192099,"173":-0.02254905789365234,"174":-0.014126821197857018,"175":0.012639224050422077,"176":-0.08092338429408708,"177":-0.041745758451300664,"178":0.02146201272725895,"179":0.01979832333972638,"180":-0.06131770460683931,"181":-0.02662411246535838,"182":0.010419625000709356,"183":-0.02393495197008921,"184":0.015814360320945377,"185":-0.0411422282910771,"186":-0.060831729053147925,"187":-0.07580633291825746,"188":0.05094089660543452,"189":-0.034970544977335524,"190":-0.048014117393686453,"191":-0.15551263095569295,"192":-0.16012811837522947,"193":-0.18859090788540372,"194":0.21640579818342798,"195":0.07128896156104557,"196":0.004940267166607339,"197":0.020742389403969483,"198":0.022483602668353968,"199":-0.03438787750758667,"200":0.03872391099475991,"201":0.00015698864502890493,"202":0.08758658795263488,"203":0.023217489982734558,"204":-0.027241107460623547,"205":-0.04271895453674585,"206":-0.05268639129221213,"207":0.02729984627463016,"208":-0.0211923005393404,"209":0.010780605157396813,"210":-0.04578217602544149,"211":-0.03283489481032821,"212":0.07215807120804853,"213":0.0329118866118898,"214":-0.10780839067985712,"215":0.016367448374728314,"216":0.03245935276282455,"217":-0.0006039966125826091,"218":0.0006358063561844083,"219":0.0007354705446196225,"220":0.029205609516971633,"221":-0.009713634703831698,"222":-0.09789303870055939,"223":-0.016265118307248194,"224":-0.12821014599336128,"225":0.002836172331700126,"226":0.010023219632421062,"227":0.08984242798352267,"228":-0.13212701971712945,"229":0.0954074488978183,"230":-0.1204094957829913,"231":0.035090007878641465,"232":0.0077367194970575925,"233":-0.05739936275455031,"234":0.05244160520411187,"235":-0.03256538601151011,"236":-0.0046104780326808766,"237":0.0635398601799607,"238":0.02419291922519097,"239":-0.03283300780795364,"240":-0.012304143119558093,"241":0.001851276232075247,"242":0.026341429406038327,"243":0.00789594005877727,"244":0.01493035611794578,"245":-0.08420907961585546,"246":0.06425142739584695,"247":-0.04521474700721488,"248":0.01261963307433295,"249":-0.06759536845882806,"250":-0.05076142041752892,"251":0.05511584636607432,"252":0.005064537364765436,"253":0.0013864965312057652,"254":-0.047601253019674765,"255":-0.000364487658194029,"256":-0.009023485958620696,"257":0.10277513062737795,"258":0.024900518159374923,"259":-0.08094447894775081,"260":-0.025888170460011142,"261":-0.072608240308939,"262":-0.03910269118282062,"263":-0.05355815616351391,"264":-0.0030093353077090073,"265":-0.02392015715240967,"266":0.044116797501871204,"267":-0.057349834524670185,"268":0.025915682811635986,"269":-0.029371047921143527,"270":0.018402699517326926,"271":0.024971480134875303,"272":-0.023175758420042762,"273":-0.03225783664574272,"274":-0.0391593102915699,"275":0.03453107030977987,"276":-0.012121231368246698,"277":-0.1065118065858705,"278":0.056251488883815044,"279":-0.07674542704791278,"280":-0.0526782866528371,"281":0.039297309106145276,"282":-0.04416631186171789,"283":0.0786646845229123,"284":0.04192854116687111,"285":0.1300779731921308,"286":-0.034811454030625195,"287":-0.0898474712034475,"288":-0.060122933952620715,"289":-0.0006576841999722556,"290":0.09528732542899589,"291":-0.18010178456988407,"292":-0.11930304808216347,"293":-0.13199531002659437,"294":0.044852431273040484,"295":0.006148456428560763,"296":-0.04611740321539325,"297":-0.042161609231768316,"298":0.032061374116882244,"299":0.022814081115917432,"300":-0.058779468533472386,"301":-0.02695374727704065,"302":0.09589641467372555,"303":0.08889175657620065,"304":0.028065512571348438,"305":0.0066912442323580614,"306":-0.020541190747791743,"307":0.0399345693254132,"308":-0.032061849371495754,"309":0.015345224135123873,"310":-0.03498455436479053,"311":0.0877208789904728,"312":-0.08094025249670485,"313":-0.0027807459710154085,"314":0.07000771560994805,"315":0.07197940339909849,"316":0.026944518016594508,"317":0.009630180297757916,"318":0.021065999534760703,"319":0.02429512931404508,"320":0.054065405692103566,"321":0.034721224614438606,"322":0.08215444236993119,"323":-0.03914792168440088,"324":-0.02777467989732596,"325":0.008894469357914754,"326":0.0071053023311097455,"327":0.06777887330381409,"328":-0.03356365442465961,"329":0.019327693690756455,"330":0.05906468762585456,"331":0.01748453892396749,"332":-0.06368938368155745,"333":-0.07970426280039306,"334":-0.030286962321910475,"335":0.03634681718887582,"336":-0.003406648375470495,"337":-0.0346261154944815,"338":0.04782160720109463,"339":0.02028261577089673,"340":-0.03755242325786503,"341":0.038253607862538036,"342":0.04345144097522597,"343":0.03556031721929363,"344":-0.09126378424546888,"345":-0.002879717163916062,"346":-0.05608375271149222,"347":-0.01686312196906836,"348":0.051974977349563856,"349":-0.0034255568875603526,"350":0.0007120648927641571,"351":-0.028089082267057513,"352":0.045549827222134166,"353":-0.009055532120429751,"354":0.056037865068086744,"355":0.028246059680459776,"356":0.02682374708935581,"357":0.043759089319112855,"358":-0.16799655618242795,"359":0.08965198005947547,"360":0.004694577844132411,"361":0.014872118586498046,"362":-0.056211245607614854,"363":-0.007592051171316542,"364":-0.023076311546804146,"365":0.008411893735791305,"366":-0.018874894639990304,"367":-0.0566846520783414,"368":0.04423590035813234,"369":0.012271404767056945,"370":0.06964823336463698,"371":-0.031373744971980894,"372":0.12962833301383186,"373":-0.004972491947462798,"374":0.008255518412891759,"375":0.06567270599353492,"376":-0.021166087163085056,"377":0.006744244447258148,"378":0.040454604992242356,"379":0.061172472870167,"380":0.09618305825823045,"381":-0.06775298295274605,"382":-0.059979656907414136,"383":-0.12712293415001746,"384":-0.035338726573469245,"385":-0.01732305572511183,"386":0.014044257531281107,"387":-0.021955422278236915,"388":0.03762111000072636,"389":0.02620653803130777,"390":0.042315965830593265,"391":-0.08886700481383997,"392":-0.10430680466883241,"393":-0.06390373283711401,"394":-0.107870173430055}},{"sx":1,"sy":1,"depth":395,"w":{"0":-0.03477402843654122,"1":-0.01135883028950643,"2":-0.02031424072544779,"3":0.01911840489986586,"4":-0.017540339623671953,"5":-0.06691945860406799,"6":0.006731360757517872,"7":-0.0051246685879940915,"8":0.05297761549811048,"9":0.03369516793353054,"10":-0.11472387619014263,"11":-0.015384067296679025,"12":-0.007261379386736035,"13":0.09256259163682733,"14":-0.03815407984597221,"15":-0.030791284413501048,"16":-0.07130236140917995,"17":-0.030171699010642455,"18":0.06414429892189585,"19":0.01996066799532748,"20":-0.04587385258505853,"21":0.013669285383267085,"22":-0.007913521081093918,"23":0.02191604223290282,"24":-0.07668847044034875,"25":0.009591549588212806,"26":-0.015329279869108937,"27":0.024660825847592084,"28":0.05104207745387781,"29":0.02286490353266264,"30":0.01932530997058097,"31":-0.016000970578168742,"32":-0.03364188017656928,"33":-0.009429342417808998,"34":0.020794559730843223,"35":-0.020893922376532065,"36":-0.009987045820243191,"37":0.03829793710867111,"38":0.01821756300574727,"39":-0.024925447202568535,"40":-0.016657593287171056,"41":-0.026376291143976306,"42":-0.09721714583689876,"43":-0.09267562848177868,"44":-0.034981721365690256,"45":-0.08976671370309008,"46":-0.07796256167583737,"47":-0.009954044977336773,"48":0.03397486604853867,"49":0.051732729296768094,"50":0.032055834054361285,"51":0.10666727439002421,"52":0.008419659553512392,"53":-0.013386368741464757,"54":-0.03473585854047838,"55":0.07509555905809118,"56":0.12129350530404467,"57":-0.014415513446185229,"58":0.03148676314909826,"59":0.03401371764424396,"60":-0.0014267630704406639,"61":0.019235574135983334,"62":-0.04474707866294462,"63":-0.035875522623372236,"64":0.011675622253188533,"65":-0.0654153545473601,"66":-0.05234525833996946,"67":0.07664383414363132,"68":-0.02655919547529708,"69":0.025157537439458248,"70":-0.019406628968621217,"71":0.021501640084305038,"72":0.04703860838638596,"73":0.001839281138902761,"74":0.01751103086358994,"75":-0.03013195839724177,"76":-0.0008948109982190017,"77":-0.05395060415550674,"78":0.02425982977784255,"79":-0.011856701442686622,"80":-0.0052785976286334035,"81":-0.027848114447692262,"82":-0.048268268962485046,"83":0.011484942619510182,"84":-0.01009161393053912,"85":0.010862071292478535,"86":-0.05629351460382007,"87":-0.052747555851073546,"88":0.024920917962891344,"89":-0.0450040417074883,"90":0.01761292849103261,"91":-0.03750360340718498,"92":-0.07318553346336988,"93":0.0430876031331569,"94":-0.005257763797221394,"95":0.12144749280128334,"96":-0.04157438251014683,"97":-0.0006380098364358066,"98":-0.018634120310782543,"99":0.05023578176536371,"100":-0.018313676695458348,"101":-0.008536466388092074,"102":-0.028483966304611846,"103":0.03134995053801846,"104":-0.004248105505594041,"105":0.08894669865318894,"106":0.0031494442987121587,"107":0.04383921564297546,"108":0.0548016699765055,"109":0.04732441719825958,"110":-0.028654028716328616,"111":0.006026944090527971,"112":-0.022577899830263898,"113":-0.09517940108402329,"114":0.0398806651733526,"115":-0.002325835983714817,"116":-0.022294488204275046,"117":0.03932326676791352,"118":-0.024382452767364015,"119":0.0011720813755320637,"120":-0.023503167008884412,"121":-0.0037648997693961856,"122":0.04063538251549483,"123":0.036852407986568275,"124":-0.0022387224695417196,"125":-0.021162410164871952,"126":-0.035709774483584596,"127":-0.043405770377983266,"128":-0.01618156574924361,"129":-0.04567206666853616,"130":-0.03823213089515924,"131":-0.1279269497720307,"132":-0.014705312487226598,"133":0.017998644489957347,"134":0.04208385363195667,"135":0.013255608652777475,"136":-0.050763909319221895,"137":0.06947876621141336,"138":0.0536960705838308,"139":0.09251784275112412,"140":-0.020614235137075408,"141":0.07496802274717831,"142":0.050732443901809386,"143":0.022037526274649447,"144":0.03361478139981121,"145":-0.027147861163602773,"146":0.018001519474179682,"147":-0.02437625643609761,"148":-0.018498544192486654,"149":0.012418995737683656,"150":-0.04129052042650736,"151":0.0012858436746938321,"152":-0.08255709658248689,"153":0.04054763784917668,"154":-0.015460991483834268,"155":-0.028720021175401327,"156":-0.036597591950355376,"157":-0.034226322253926654,"158":-0.013329608921635724,"159":0.06029342756170215,"160":-0.009920990674188545,"161":-0.03042189233437809,"162":-0.04883443100060915,"163":-0.07980261423344549,"164":-0.05218379104247346,"165":0.05096045081919641,"166":0.0063174790818107136,"167":0.00390957122056928,"168":0.03747809049199398,"169":-0.005250677591730115,"170":-0.0943967900597786,"171":-0.07104425765043106,"172":-0.03417152619783948,"173":-0.009691157805694739,"174":0.07259049227558347,"175":-0.1429427099367244,"176":-0.029649886320832167,"177":0.04544043546509196,"178":0.05344997836698444,"179":0.019267009929778894,"180":-0.07233567496602526,"181":0.010389370078459128,"182":-0.011263668577267827,"183":-0.009097712002762874,"184":-0.015789120618363794,"185":-0.03827877708788405,"186":0.008760909065397941,"187":-0.028888711197916323,"188":0.0026305312845293083,"189":0.015196046766734075,"190":-0.027651804395591013,"191":-0.062458475124988644,"192":-0.06509721673991066,"193":0.019081946775968413,"194":-0.11536970555082934,"195":-0.06883871403576068,"196":0.027103201292481782,"197":0.0741148363554767,"198":0.06249585275230669,"199":0.0349710192323626,"200":-0.025258472979948998,"201":0.055391599477886466,"202":-0.01205516196641838,"203":-0.01869935198649833,"204":0.0027474567096649662,"205":-0.08314389328908167,"206":0.13721311281270449,"207":-0.028205394549091052,"208":-0.030336344443833988,"209":0.11601434133995042,"210":-0.04182127268891914,"211":0.02587331028191394,"212":-0.041011972467555086,"213":0.08856631613324809,"214":-0.06619525692569062,"215":-0.0769551338704847,"216":-0.014151056408329456,"217":-0.03290876618921125,"218":0.010701632164364136,"219":0.043636323025483474,"220":-0.008472841736759794,"221":-0.0025948492424011844,"222":0.06595971902998715,"223":0.04705895638155214,"224":-0.004864595051126919,"225":0.036550841416952404,"226":-0.05964560298108257,"227":-0.00006049051316664168,"228":0.04418159576911298,"229":-0.032093058269896384,"230":0.039751177855855815,"231":-0.04057411104211145,"232":0.021973323102962423,"233":-0.00782054703542209,"234":-0.11533803456551558,"235":0.034339612069241084,"236":0.020346096105061478,"237":-0.0057130204571816745,"238":0.10867532775071467,"239":0.047588425077082545,"240":0.007105691616862111,"241":-0.123290606223355,"242":-0.06357911625602308,"243":-0.09106017389787086,"244":0.1233646037151743,"245":-0.047451728236956175,"246":-0.01416988946662093,"247":0.027454565300975828,"248":-0.024038144286064766,"249":-0.02778441191589023,"250":-0.08113511235302645,"251":-0.06721346378474762,"252":-0.03818025439783488,"253":0.06648126174176154,"254":0.010128406257180932,"255":-0.0026920938499709716,"256":-0.04475483093423201,"257":0.03228964054296022,"258":-0.03960840197746546,"259":0.023252310398938734,"260":0.028289761365704706,"261":-0.06012340942842716,"262":-0.0818638826056,"263":-0.026440806754465963,"264":-0.004314166886069629,"265":-0.008580282321477326,"266":0.045784673072678576,"267":0.03528599786074024,"268":0.09439108323289035,"269":-0.047067824954787015,"270":-0.06637043234855247,"271":-0.07390783304099427,"272":0.08972918318721769,"273":0.013202604890103789,"274":-0.0016104115540631822,"275":-0.007423475934677261,"276":0.023212791441968344,"277":-0.017994111477264676,"278":-0.05472672995299153,"279":0.01881350094185028,"280":0.04102251911408948,"281":0.07884762508538627,"282":-0.10395249749719561,"283":0.02976876794767412,"284":0.03561344491025076,"285":0.10441463709649962,"286":0.00038192202079230894,"287":0.00891810382336904,"288":-0.007515870882164418,"289":0.09250175870633848,"290":0.00701956320802086,"291":-0.06825747205423055,"292":-0.00304853036820558,"293":-0.0928156836441358,"294":-0.042426919196747154,"295":-0.09954784291340922,"296":-0.03113352874811185,"297":-0.07410180755785427,"298":-0.05222397858437781,"299":-0.04632649048242451,"300":0.029427351130357084,"301":0.08549950685040429,"302":0.025780465816872107,"303":-0.034418546040702463,"304":-0.04443948304978371,"305":0.03166117143325074,"306":0.07091971381865683,"307":0.00947180195574541,"308":0.06641276098191444,"309":0.0034195848384251156,"310":0.023473420469974783,"311":0.046114335558113485,"312":0.0429349564849627,"313":0.007600519656428571,"314":0.018929749954761887,"315":-0.05932140592365732,"316":-0.00566083667695931,"317":0.022880020774308157,"318":0.07727388560577017,"319":0.08898424977167457,"320":-0.03550385692455405,"321":0.022640118155061874,"322":0.043525375695843575,"323":0.01771423610384735,"324":0.033110051802616114,"325":0.01826112072096032,"326":0.009794431567411634,"327":0.045762533839650475,"328":0.00034750945153060037,"329":-0.007773372918682932,"330":-0.042024658137150714,"331":-0.04796368944915959,"332":-0.02609896266556597,"333":0.004956287577205057,"334":-0.02881994375835693,"335":-0.06937041205223844,"336":-0.050556357324484255,"337":0.09614033435977834,"338":-0.003611198532798429,"339":0.024627223220005816,"340":0.013608045466574539,"341":0.039437170114859935,"342":-0.07138501101742488,"343":-0.040758383888069266,"344":-0.0012218644009875954,"345":0.020584362708787923,"346":-0.009089240818227496,"347":-0.03069329507999933,"348":0.017149478620899463,"349":0.023806444630177958,"350":-0.05715489058436884,"351":0.0028705225507047625,"352":-0.05614103260372024,"353":-0.0739665469711837,"354":0.02248512972076467,"355":0.03329749336333559,"356":-0.09974840220270373,"357":-0.03334554612957076,"358":0.03238134899370172,"359":0.0020930435231998395,"360":0.03874922634927224,"361":0.04946751002571222,"362":-0.0075207449459044435,"363":-0.04520474809163971,"364":-0.0049873028655020284,"365":-0.05873421000523222,"366":-0.007410876001233243,"367":0.018866777774092073,"368":-0.0019069450526604072,"369":0.0744320903191123,"370":-0.0524531671095014,"371":0.032624826780331996,"372":-0.02707491363953643,"373":-0.08537950060536464,"374":0.09633974097083417,"375":0.01577756791422885,"376":0.025179308915070333,"377":0.0895402437785061,"378":-0.003122061244705775,"379":-0.008618689669616538,"380":0.013241426494233073,"381":0.01602547196495423,"382":-0.03193699305017732,"383":0.0048484791925060035,"384":0.021404398975505688,"385":-0.04988400630784241,"386":-0.01914830851990156,"387":0.01195394832176474,"388":0.09026490158165282,"389":0.025970853078599667,"390":-0.04612815114635111,"391":-0.08677915946147388,"392":0.026247472179506435,"393":-0.12060814403565123,"394":-0.05527802355695643}},{"sx":1,"sy":1,"depth":395,"w":{"0":0.048322097472058796,"1":-0.01877383286441724,"2":0.03893821681919818,"3":-0.056056076848107074,"4":-0.07740032321697264,"5":-0.037442129202380846,"6":-0.029763776408949463,"7":0.00578611112140503,"8":0.050300401000742505,"9":0.09499698268175241,"10":-0.06098457996280017,"11":-0.023746430320304036,"12":0.0634996946271728,"13":-0.011074613271742178,"14":0.06119777312406812,"15":-0.04551734272937747,"16":-0.00943000560778629,"17":0.02604412227953721,"18":0.0023258409989587647,"19":0.036350335571763225,"20":0.016963642406502902,"21":-0.044222053574033054,"22":0.037755062386487674,"23":0.10196800379803778,"24":0.0839956145063656,"25":-0.05667732959928657,"26":0.029451596890158967,"27":0.10641391461077097,"28":0.017446442776512614,"29":0.041023111114593565,"30":-0.05092796668635743,"31":0.02761791449511085,"32":0.17015122412645994,"33":0.08731222164129736,"34":0.05244729444656932,"35":-0.04606637770452217,"36":0.0013634282920523633,"37":0.17709506692671845,"38":0.07923429139672022,"39":0.005684072590572084,"40":0.016398314354273674,"41":0.0019769213729522667,"42":0.15472668294942862,"43":0.036954748901513464,"44":0.05886643654467294,"45":-0.032887309693265164,"46":0.0900018980750157,"47":0.11562586784661794,"48":0.13769221174593052,"49":0.04408204125116362,"50":-0.07114758952775498,"51":-0.01991632857839966,"52":0.1006450397191518,"53":-0.027184674057277536,"54":-0.06519025019531687,"55":-0.1421869308168818,"56":0.10033706846967881,"57":0.057405620299903565,"58":-0.021888692787526923,"59":0.11096228804296972,"60":-0.025469642342068312,"61":-0.06515872068371532,"62":-0.024563500747853493,"63":-0.026815231177923865,"64":0.036458510003661154,"65":-0.056612998288697994,"66":-0.05690277877093101,"67":0.0004466748006754291,"68":-0.004141446658694375,"69":0.040726881881190946,"70":0.0023479748159732105,"71":-0.07523757692104666,"72":-0.04194731191579683,"73":0.0172617850087997,"74":-0.06602993677008397,"75":-0.07303448236382033,"76":0.011803573281743585,"77":-0.058198966432708624,"78":-0.010788102122495041,"79":-0.055530617702601134,"80":-0.04546843163167039,"81":0.010494570177046353,"82":0.1082135570096256,"83":-0.0856683205911485,"84":0.04227485647236078,"85":-0.028120037068241045,"86":0.04709498678225035,"87":0.08829264437460978,"88":0.047155495045840566,"89":0.08845961672235864,"90":-0.05763761800443454,"91":0.052696617398534755,"92":0.02067556066530283,"93":-0.053379745910369404,"94":0.0441527682040699,"95":-0.02710578695820007,"96":-0.0073550398501886745,"97":0.016143132511362995,"98":0.04039942807216285,"99":0.02752329839552747,"100":-0.046999167702707,"101":-0.01596887819354167,"102":0.05036706621658408,"103":0.009503413370778877,"104":0.09184976543983649,"105":0.007451370466413195,"106":0.03797915612354074,"107":-0.006479088953506632,"108":0.03569407493511525,"109":-0.007884161428772496,"110":-0.02197497520897814,"111":-0.08420155362498115,"112":0.007875387819906357,"113":0.028984774321120156,"114":-0.051239524309214905,"115":0.0015408168016880343,"116":0.00639601123726537,"117":-0.010644752482195433,"118":-0.07732463049989875,"119":0.006111195885770148,